{"learner":{"attributes":{"scikit_learn":"{\"_estimator_type\": \"regressor\"}"},"feature_names":["Class","pH","Water content(%)","m(g)","T(°C)","HR(°C/min)","V(L)","t(min)","Conc(mol/L)"],"feature_types":["int","float","float","int","int","float","float","int","float"],"gradient_booster":{"model":{"gbtree_model_param":{"num_parallel_tree":"1","num_trees":"800"},"iteration_indptr":[0,1,2,3,4,5,6,7,8,9,10,11,12,13,14,15,16,17,18,19,20,21,22,23,24,25,26,27,28,29,30,31,32,33,34,35,36,37,38,39,40,41,42,43,44,45,46,47,48,49,50,51,52,53,54,55,56,57,58,59,60,61,62,63,64,65,66,67,68,69,70,71,72,73,74,75,76,77,78,79,80,81,82,83,84,85,86,87,88,89,90,91,92,93,94,95,96,97,98,99,100,101,102,103,104,105,106,107,108,109,110,111,112,113,114,115,116,117,118,119,120,121,122,123,124,125,126,127,128,129,130,131,132,133,134,135,136,137,138,139,140,141,142,143,144,145,146,147,148,149,150,151,152,153,154,155,156,157,158,159,160,161,162,163,164,165,166,167,168,169,170,171,172,173,174,175,176,177,178,179,180,181,182,183,184,185,186,187,188,189,190,191,192,193,194,195,196,197,198,199,200,201,202,203,204,205,206,207,208,209,210,211,212,213,214,215,216,217,218,219,220,221,222,223,224,225,226,227,228,229,230,231,232,233,234,235,236,237,238,239,240,241,242,243,244,245,246,247,248,249,250,251,252,253,254,255,256,257,258,259,260,261,262,263,264,265,266,267,268,269,270,271,272,273,274,275,276,277,278,279,280,281,282,283,284,285,286,287,288,289,290,291,292,293,294,295,296,297,298,299,300,301,302,303,304,305,306,307,308,309,310,311,312,313,314,315,316,317,318,319,320,321,322,323,324,325,326,327,328,329,330,331,332,333,334,335,336,337,338,339,340,341,342,343,344,345,346,347,348,349,350,351,352,353,354,355,356,357,358,359,360,361,362,363,364,365,366,367,368,369,370,371,372,373,374,375,376,377,378,379,380,381,382,383,384,385,386,387,388,389,390,391,392,393,394,395,396,397,398,399,400,401,402,403,404,405,406,407,408,409,410,411,412,413,414,415,416,417,418,419,420,421,422,423,424,425,426,427,428,429,430,431,432,433,434,435,436,437,438,439,440,441,442,443,444,445,446,447,448,449,450,451,452,453,454,455,456,457,458,459,460,461,462,463,464,465,466,467,468,469,470,471,472,473,474,475,476,477,478,479,480,481,482,483,484,485,486,487,488,489,490,491,492,493,494,495,496,497,498,499,500,501,502,503,504,505,506,507,508,509,510,511,512,513,514,515,516,517,518,519,520,521,522,523,524,525,526,527,528,529,530,531,532,533,534,535,536,537,538,539,540,541,542,543,544,545,546,547,548,549,550,551,552,553,554,555,556,557,558,559,560,561,562,563,564,565,566,567,568,569,570,571,572,573,574,575,576,577,578,579,580,581,582,583,584,585,586,587,588,589,590,591,592,593,594,595,596,597,598,599,600,601,602,603,604,605,606,607,608,609,610,611,612,613,614,615,616,617,618,619,620,621,622,623,624,625,626,627,628,629,630,631,632,633,634,635,636,637,638,639,640,641,642,643,644,645,646,647,648,649,650,651,652,653,654,655,656,657,658,659,660,661,662,663,664,665,666,667,668,669,670,671,672,673,674,675,676,677,678,679,680,681,682,683,684,685,686,687,688,689,690,691,692,693,694,695,696,697,698,699,700,701,702,703,704,705,706,707,708,709,710,711,712,713,714,715,716,717,718,719,720,721,722,723,724,725,726,727,728,729,730,731,732,733,734,735,736,737,738,739,740,741,742,743,744,745,746,747,748,749,750,751,752,753,754,755,756,757,758,759,760,761,762,763,764,765,766,767,768,769,770,771,772,773,774,775,776,777,778,779,780,781,782,783,784,785,786,787,788,789,790,791,792,793,794,795,796,797,798,799,800],"tree_info":[0,0,0,0,0,0,0,0,0,0,0,0,0,0,0,0,0,0,0,0,0,0,0,0,0,0,0,0,0,0,0,0,0,0,0,0,0,0,0,0,0,0,0,0,0,0,0,0,0,0,0,0,0,0,0,0,0,0,0,0,0,0,0,0,0,0,0,0,0,0,0,0,0,0,0,0,0,0,0,0,0,0,0,0,0,0,0,0,0,0,0,0,0,0,0,0,0,0,0,0,0,0,0,0,0,0,0,0,0,0,0,0,0,0,0,0,0,0,0,0,0,0,0,0,0,0,0,0,0,0,0,0,0,0,0,0,0,0,0,0,0,0,0,0,0,0,0,0,0,0,0,0,0,0,0,0,0,0,0,0,0,0,0,0,0,0,0,0,0,0,0,0,0,0,0,0,0,0,0,0,0,0,0,0,0,0,0,0,0,0,0,0,0,0,0,0,0,0,0,0,0,0,0,0,0,0,0,0,0,0,0,0,0,0,0,0,0,0,0,0,0,0,0,0,0,0,0,0,0,0,0,0,0,0,0,0,0,0,0,0,0,0,0,0,0,0,0,0,0,0,0,0,0,0,0,0,0,0,0,0,0,0,0,0,0,0,0,0,0,0,0,0,0,0,0,0,0,0,0,0,0,0,0,0,0,0,0,0,0,0,0,0,0,0,0,0,0,0,0,0,0,0,0,0,0,0,0,0,0,0,0,0,0,0,0,0,0,0,0,0,0,0,0,0,0,0,0,0,0,0,0,0,0,0,0,0,0,0,0,0,0,0,0,0,0,0,0,0,0,0,0,0,0,0,0,0,0,0,0,0,0,0,0,0,0,0,0,0,0,0,0,0,0,0,0,0,0,0,0,0,0,0,0,0,0,0,0,0,0,0,0,0,0,0,0,0,0,0,0,0,0,0,0,0,0,0,0,0,0,0,0,0,0,0,0,0,0,0,0,0,0,0,0,0,0,0,0,0,0,0,0,0,0,0,0,0,0,0,0,0,0,0,0,0,0,0,0,0,0,0,0,0,0,0,0,0,0,0,0,0,0,0,0,0,0,0,0,0,0,0,0,0,0,0,0,0,0,0,0,0,0,0,0,0,0,0,0,0,0,0,0,0,0,0,0,0,0,0,0,0,0,0,0,0,0,0,0,0,0,0,0,0,0,0,0,0,0,0,0,0,0,0,0,0,0,0,0,0,0,0,0,0,0,0,0,0,0,0,0,0,0,0,0,0,0,0,0,0,0,0,0,0,0,0,0,0,0,0,0,0,0,0,0,0,0,0,0,0,0,0,0,0,0,0,0,0,0,0,0,0,0,0,0,0,0,0,0,0,0,0,0,0,0,0,0,0,0,0,0,0,0,0,0,0,0,0,0,0,0,0,0,0,0,0,0,0,0,0,0,0,0,0,0,0,0,0,0,0,0,0,0,0,0,0,0,0,0,0,0,0,0,0,0,0,0,0,0,0,0,0,0,0,0,0,0,0,0,0,0,0,0,0,0,0,0,0,0,0,0,0,0,0,0,0,0,0,0,0,0,0,0,0,0,0,0,0,0,0,0,0,0,0,0,0,0,0,0,0,0,0,0,0,0,0,0,0,0,0,0,0,0,0,0,0,0,0,0,0,0,0,0,0,0,0,0,0,0,0,0,0,0,0,0,0,0,0,0,0,0,0,0,0,0,0,0,0,0,0,0,0,0,0,0,0,0,0,0,0,0,0,0,0,0,0,0,0,0,0,0,0,0,0,0,0,0,0,0,0,0,0,0,0,0,0,0,0,0,0,0,0,0,0,0,0,0,0,0,0,0,0],"trees":[{"base_weights":[7.918873E-3,-9.668973E-2,1.3060552E-1,-1.8522926E-2,-5.7323378E-2,-1.864661E-2,1.5120265E-1,5.2341954E-3,-1.0548053E-1,9.622743E-2,3.2042193E-1,-9.376137E-3,2.5785782E-3,6.0514733E-3,1.7340867E-4,8.74007E-3,1.9515706E-2],"categories":[],"categories_nodes":[],"categories_segments":[],"categories_sizes":[],"default_left":[0,0,0,0,0,0,0,0,0,0,0,0,0,0,0,0,0],"id":0,"left_children":[1,3,5,-1,7,-1,9,-1,11,13,15,-1,-1,-1,-1,-1,-1],"loss_changes":[1.9249059E0,8.517237E-1,7.7201724E-1,0E0,5.727724E-1,0E0,5.924586E-1,0E0,7.3122513E-1,1.1921245E-1,9.461641E-2,0E0,0E0,0E0,0E0,0E0,0E0],"parents":[2147483647,0,0,1,1,2,2,4,4,6,6,8,8,9,9,10,10],"right_children":[2,4,6,-1,8,-1,10,-1,12,14,16,-1,-1,-1,-1,-1,-1],"split_conditions":[1.1E2,8E1,6E1,-1.8522926E-2,7.6E-1,-1.864661E-2,1.6E2,5.2341954E-3,1.6E2,1.4E2,6.54E1,-9.376137E-3,2.5785782E-3,6.0514733E-3,1.7340867E-4,8.74007E-3,1.9515706E-2],"split_indices":[3,4,4,0,5,0,4,0,4,4,2,0,0,0,0,0,0],"split_type":[0,0,0,0,0,0,0,0,0,0,0,0,0,0,0,0,0],"sum_hessian":[1.48E2,8E1,6.8E1,9E0,7.1E1,2E0,6.6E1,1.6E1,5.5E1,5.1E1,1.5E1,3.6E1,1.9E1,4E1,1.1E1,6E0,9E0],"tree_param":{"num_deleted":"0","num_feature":"9","num_nodes":"17","size_leaf_vector":"1"}},{"base_weights":[7.869891E-3,-2.1238515E-1,1.3993548E-1,-1.9764343E-2,-1.09954104E-1,1.8632058E-2,2.456878E-1,-2.2948526E-1,5.3802676E-2,-4.38538E-2,2.2922078E-1,1.3724427E-1,3.061791E-1,-1.3425722E-2,1.7586611E-4,-3.5464484E-3,7.934859E-3,-1.6000954E-2,1.3376862E-3,5.1209233E-3,1.4834295E-2,4.0056785E-3,1.118689E-2,1.669523E-2,1.0219294E-2],"categories":[],"categories_nodes":[],"categories_segments":[],"categories_sizes":[],"default_left":[0,0,0,0,0,0,0,0,0,0,0,0,0,0,0,0,0,0,0,0,0,0,0,0,0],"id":1,"left_children":[1,3,5,-1,7,9,11,13,15,17,19,21,23,-1,-1,-1,-1,-1,-1,-1,-1,-1,-1,-1,-1],"loss_changes":[4.1893206E0,9.682162E-1,1.1499529E0,0E0,7.170123E-1,5.758813E-1,2.7285337E-1,1.9191635E-1,2.2059485E-1,6.715395E-1,5.5161238E-2,7.596287E-2,1.642251E-2,0E0,0E0,0E0,0E0,0E0,0E0,0E0,0E0,0E0,0E0,0E0,0E0],"parents":[2147483647,0,0,1,1,2,2,4,4,5,5,6,6,7,7,8,8,9,9,10,10,11,11,12,12],"right_children":[2,4,6,-1,8,10,12,14,16,18,20,22,24,-1,-1,-1,-1,-1,-1,-1,-1,-1,-1,-1,-1],"split_conditions":[4.5E1,1.5E1,1.1E2,-1.9764343E-2,1.1E2,1.6E2,7E1,1.88E2,6E0,3E0,1.88E2,6E0,3E2,-1.3425722E-2,1.7586611E-4,-3.5464484E-3,7.934859E-3,-1.6000954E-2,1.3376862E-3,5.1209233E-3,1.4834295E-2,4.0056785E-3,1.118689E-2,1.669523E-2,1.0219294E-2],"split_indices":[7,7,3,0,3,4,7,4,0,0,4,0,3,0,0,0,0,0,0,0,0,0,0,0,0],"split_type":[0,0,0,0,0,0,0,0,0,0,0,0,0,0,0,0,0,0,0,0,0,0,0,0,0],"sum_hessian":[1.42E2,5.3E1,8.9E1,1.8E1,3.5E1,4.2E1,4.7E1,2E1,1.5E1,3.3E1,9E0,1.8E1,2.9E1,1.7E1,3E0,7E0,8E0,6E0,2.7E1,4E0,5E0,1.2E1,6E0,2.1E1,8E0],"tree_param":{"num_deleted":"0","num_feature":"9","num_nodes":"25","size_leaf_vector":"1"}},{"base_weights":[-9.103366E-3,-1.0346357E-1,1.0637026E-1,-1.7496448E-2,-6.569713E-2,8.0907494E-2,1.6739102E-2,-1.1186753E-1,5.9261657E-2,-1.3024685E-2,9.146705E-2,-1.9473525E-2,-1.6365014E-3,1.6686559E-3,4.5343377E-3,5.317139E-3,-4.2254515E-3],"categories":[],"categories_nodes":[],"categories_segments":[],"categories_sizes":[],"default_left":[0,0,0,0,0,0,0,0,0,0,0,0,0,0,0,0,0],"id":2,"left_children":[1,3,5,-1,7,9,-1,11,13,-1,15,-1,-1,-1,-1,-1,-1],"loss_changes":[1.5255655E0,6.9373584E-1,3.3932132E-1,0E0,3.9894843E-1,2.329193E-1,0E0,1.0856929E0,1.2430944E-2,0E0,1.581999E-1,0E0,0E0,0E0,0E0,0E0,0E0],"parents":[2147483647,0,0,1,1,2,2,4,4,5,5,7,7,8,8,10,10],"right_children":[2,4,6,-1,8,10,-1,12,14,-1,16,-1,-1,-1,-1,-1,-1],"split_conditions":[1.1E2,8E1,1.88E2,-1.7496448E-2,1.6E2,6E1,1.6739102E-2,3E0,2.2E2,-1.3024685E-2,9E1,-1.9473525E-2,-1.6365014E-3,1.6686559E-3,4.5343377E-3,5.317139E-3,-4.2254515E-3],"split_indices":[3,4,4,0,4,4,0,0,4,0,2,0,0,0,0,0,0],"split_type":[0,0,0,0,0,0,0,0,0,0,0,0,0,0,0,0,0],"sum_hessian":[1.38E2,7.6E1,6.2E1,9E0,6.7E1,5.7E1,5E0,4.9E1,1.8E1,1E0,5.6E1,1E1,3.9E1,1.1E1,7E0,5.2E1,4E0],"tree_param":{"num_deleted":"0","num_feature":"9","num_nodes":"17","size_leaf_vector":"1"}},{"base_weights":[-2.0732926E-3,-9.668675E-2,1.0856037E-1,-2.1020135E-2,-6.1339192E-2,1.8759926E-1,5.2312977E-4,-1.6872803E-2,-2.3892267E-2,1.3934053E-1,1.6163362E-2,-9.250769E-2,4.9228646E-2,4.4199717E-3,-3.3042633E-3,1.2303127E-2,9.9238256E-5,-9.279631E-3,5.839456E-3,1.2144574E-3,4.3359594E-3],"categories":[],"categories_nodes":[],"categories_segments":[],"categories_sizes":[],"default_left":[0,0,0,0,0,0,0,0,0,0,0,0,0,0,0,0,0,0,0,0,0],"id":3,"left_children":[1,3,5,-1,7,9,11,-1,13,15,-1,17,19,-1,-1,-1,-1,-1,-1,-1,-1],"loss_changes":[1.6120136E0,9.2394584E-1,6.0618097E-1,0E0,7.777568E-1,2.233895E-1,1.4501858E-1,0E0,3.2802072E-1,4.6859586E-1,0E0,2.3598137E-1,1.7528567E-2,0E0,0E0,0E0,0E0,0E0,0E0,0E0,0E0],"parents":[2147483647,0,0,1,1,2,2,4,4,5,5,6,6,8,8,9,9,11,11,12,12],"right_children":[2,4,6,-1,8,10,12,-1,14,16,-1,18,20,-1,-1,-1,-1,-1,-1,-1,-1],"split_conditions":[1.2E2,3.6E1,4E0,-2.1020135E-2,2.5E-1,6E0,1.6E2,-1.6872803E-2,7.6E-1,4E0,1.6163362E-2,6E0,2.2E2,4.4199717E-3,-3.3042633E-3,1.2303127E-2,9.9238256E-5,-9.279631E-3,5.839456E-3,1.2144574E-3,4.3359594E-3],"split_indices":[4,3,5,0,5,0,4,0,5,0,0,0,4,0,0,0,0,0,0,0,0],"split_type":[0,0,0,0,0,0,0,0,0,0,0,0,0,0,0,0,0,0,0,0,0],"sum_hessian":[1.52E2,8.2E1,7E1,7E0,7.5E1,4E1,3E1,8E0,6.7E1,3.1E1,9E0,1E1,2E1,1.8E1,4.9E1,1.7E1,1.4E1,7E0,3E0,1.3E1,7E0],"tree_param":{"num_deleted":"0","num_feature":"9","num_nodes":"21","size_leaf_vector":"1"}},{"base_weights":[-6.3476632E-3,-3.0956486E-1,7.258972E-2,-1.8981917E-2,-1.7794684E-1,-2.3953397E-2,1.6196467E-1,-2.5633416E-1,-1.2602687E-3,-1.05938464E-1,7.3527336E-2,7.8466386E-2,2.6003274E-1,-1.4537403E-2,4.744217E-4,-5.365209E-3,5.2601863E-3,-8.478318E-3,4.1288338E-3,-1.0298004E-3,8.456091E-3,-1.0132891E-2,6.517317E-3,9.95295E-3,1.4856636E-2],"categories":[],"categories_nodes":[],"categories_segments":[],"categories_sizes":[],"default_left":[0,0,0,0,0,0,0,0,0,0,0,0,0,0,0,0,0,0,0,0,0,0,0,0,0],"id":4,"left_children":[1,3,5,-1,7,9,11,13,15,17,19,21,23,-1,-1,-1,-1,-1,-1,-1,-1,-1,-1,-1,-1],"loss_changes":[3.7084877E0,2.275784E-1,1.0651896E0,0E0,1.7972678E-1,4.8730725E-1,5.036609E-1,8.509064E-2,6.7738086E-2,4.0983137E-1,2.554181E-1,5.514654E-1,6.4548254E-3,0E0,0E0,0E0,0E0,0E0,0E0,0E0,0E0,0E0,0E0,0E0,0E0],"parents":[2147483647,0,0,1,1,2,2,4,4,5,5,6,6,7,7,8,8,9,9,10,10,11,11,12,12],"right_children":[2,4,6,-1,8,10,12,14,16,18,20,22,24,-1,-1,-1,-1,-1,-1,-1,-1,-1,-1,-1,-1],"split_conditions":[2.3E1,1.5E1,7E1,-1.8981917E-2,6.86E0,6.86E0,1.2E2,1.6E2,1E2,1.6E2,3.8E1,5.86E0,1.6E2,-1.4537403E-2,4.744217E-4,-5.365209E-3,5.2601863E-3,-8.478318E-3,4.1288338E-3,-1.0298004E-3,8.456091E-3,-1.0132891E-2,6.517317E-3,9.95295E-3,1.4856636E-2],"split_indices":[7,7,7,0,1,1,4,4,4,4,7,1,4,0,0,0,0,0,0,0,0,0,0,0,0],"split_type":[0,0,0,0,0,0,0,0,0,0,0,0,0,0,0,0,0,0,0,0,0,0,0,0,0],"sum_hessian":[1.53E2,3.1E1,1.22E2,1.9E1,1.2E1,5.9E1,6.3E1,8E0,4E0,3.2E1,2.7E1,3.5E1,2.8E1,7E0,1E0,2E0,2E0,2.4E1,8E0,1.4E1,1.3E1,5E0,3E1,1.3E1,1.5E1],"tree_param":{"num_deleted":"0","num_feature":"9","num_nodes":"25","size_leaf_vector":"1"}},{"base_weights":[-7.850041E-3,-3.19611E-1,6.3064195E-2,-1.9253856E-2,-1.893221E-1,-2.9519405E-2,1.5895067E-1,-1.4161088E-2,-1.2182593E-3,-1.033033E-1,5.6715705E-2,4.9956396E-2,2.50947E-1,-3.1995743E-3,6.246866E-3,-1.4279353E-2,-3.627707E-3,-2.8013568E-3,9.411303E-3,-1.1913543E-2,4.4673784E-3,8.473339E-3,1.4304514E-2],"categories":[],"categories_nodes":[],"categories_segments":[],"categories_sizes":[],"default_left":[0,0,0,0,0,0,0,0,0,0,0,0,0,0,0,0,0,0,0,0,0,0,0],"id":5,"left_children":[1,3,5,-1,7,9,11,-1,13,15,17,19,21,-1,-1,-1,-1,-1,-1,-1,-1,-1,-1],"loss_changes":[3.5795908E0,1.8298149E-1,1.1765242E0,0E0,2.1160957E-1,4.3852675E-1,6.392232E-1,0E0,4.759089E-2,1.8666714E-1,4.8500502E-1,3.7325075E-1,5.1739454E-2,0E0,0E0,0E0,0E0,0E0,0E0,0E0,0E0,0E0,0E0],"parents":[2147483647,0,0,1,1,2,2,4,4,5,5,6,6,8,8,9,9,10,10,11,11,12,12],"right_children":[2,4,6,-1,8,10,12,-1,14,16,18,20,22,-1,-1,-1,-1,-1,-1,-1,-1,-1,-1],"split_conditions":[2.3E1,1.3E1,7E1,-1.9253856E-2,6.86E0,6.86E0,1.1E2,-1.4161088E-2,1E0,2.5E-1,6E0,2.5E-1,5.15E0,-3.1995743E-3,6.246866E-3,-1.4279353E-2,-3.627707E-3,-2.8013568E-3,9.411303E-3,-1.1913543E-2,4.4673784E-3,8.473339E-3,1.4304514E-2],"split_indices":[7,7,7,0,1,1,3,0,0,5,0,5,1,0,0,0,0,0,0,0,0,0,0],"split_type":[0,0,0,0,0,0,0,0,0,0,0,0,0,0,0,0,0,0,0,0,0,0,0],"sum_hessian":[1.6E2,2.9E1,1.31E2,1.8E1,1.1E1,6.7E1,6.4E1,7E0,4E0,3.6E1,3.1E1,3E1,3.4E1,3E0,1E0,4E0,3.2E1,1.7E1,1.4E1,3E0,2.7E1,1.2E1,2.2E1],"tree_param":{"num_deleted":"0","num_feature":"9","num_nodes":"23","size_leaf_vector":"1"}},{"base_weights":[7.996952E-3,-2.7589762E-1,7.3625475E-2,-1.7747352E-2,-1.4091949E-1,-1.3679996E-2,9.412071E-2,-2.1103682E-1,-5.478859E-4,8.236294E-3,1.8766305E-1,-1.1305411E-2,-2.6384243E-3,-3.0795902E-3,6.0906946E-3,-3.1851828E-3,3.5603333E-3,6.7896075E-3,1.3939892E-2],"categories":[],"categories_nodes":[],"categories_segments":[],"categories_sizes":[],"default_left":[0,0,0,0,0,0,0,0,0,0,0,0,0,0,0,0,0,0,0],"id":6,"left_children":[1,3,5,-1,7,-1,9,11,13,15,17,-1,-1,-1,-1,-1,-1,-1,-1],"loss_changes":[2.7777872E0,2.4873948E-1,8.868439E-1,0E0,1.17994145E-1,0E0,9.223447E-1,7.1511865E-3,4.484995E-2,2.8087136E-1,2.2213972E-1,0E0,0E0,0E0,0E0,0E0,0E0,0E0,0E0],"parents":[2147483647,0,0,1,1,2,2,4,4,6,6,7,7,8,8,9,9,10,10],"right_children":[2,4,6,-1,8,-1,10,12,14,16,18,-1,-1,-1,-1,-1,-1,-1,-1],"split_conditions":[3E1,1.5E1,2.5E-1,-1.7747352E-2,6.86E0,-1.3679996E-2,7E1,2.3E1,1E0,6.86E0,6.86E0,-1.1305411E-2,-2.6384243E-3,-3.0795902E-3,6.0906946E-3,-3.1851828E-3,3.5603333E-3,6.7896075E-3,1.3939892E-2],"split_indices":[7,7,5,0,1,0,7,7,0,1,1,0,0,0,0,0,0,0,0],"split_type":[0,0,0,0,0,0,0,0,0,0,0,0,0,0,0,0,0,0,0],"sum_hessian":[1.47E2,2.7E1,1.2E2,1.6E1,1.1E1,6E0,1.14E2,7E0,4E0,6E1,5.4E1,6E0,1E0,3E0,1E0,2.8E1,3.2E1,3.6E1,1.8E1],"tree_param":{"num_deleted":"0","num_feature":"9","num_nodes":"19","size_leaf_vector":"1"}},{"base_weights":[-2.5333362E-3,-2.7954257E-1,6.2123258E-2,-8.6196736E-2,-3.0817533E-1,-1.3498515E-2,8.508454E-2,-6.155988E-3,1.5373841E-3,-3.3237988E-1,-1.0405762E-1,-4.2367745E-2,1.3166209E-1,-1.776356E-2,-9.403667E-3,-7.6699904E-3,1.0992244E-3,-3.479527E-3,7.939186E-3,3.1957254E-3,1.1137347E-2],"categories":[],"categories_nodes":[],"categories_segments":[],"categories_sizes":[],"default_left":[0,0,0,0,0,0,0,0,0,0,0,0,0,0,0,0,0,0,0,0,0],"id":7,"left_children":[1,3,5,7,9,-1,11,-1,-1,13,15,17,19,-1,-1,-1,-1,-1,-1,-1,-1],"loss_changes":[2.6502056E0,1.2844491E-1,9.380057E-1,2.5375355E-2,8.3987236E-2,0E0,6.7639315E-1,0E0,0E0,2.5537014E-3,2.82492E-2,1.8080287E-1,4.979378E-1,0E0,0E0,0E0,0E0,0E0,0E0,0E0,0E0],"parents":[2147483647,0,0,1,1,2,2,3,3,4,4,6,6,9,9,10,10,11,11,12,12],"right_children":[2,4,6,8,10,-1,12,-1,-1,14,16,18,20,-1,-1,-1,-1,-1,-1,-1,-1],"split_conditions":[2.3E1,1E0,2.5E-1,1E2,2.2E2,-1.3498515E-2,4.5E1,-6.155988E-3,1.5373841E-3,2E1,1.2E1,9E0,1.2E2,-1.776356E-2,-9.403667E-3,-7.6699904E-3,1.0992244E-3,-3.479527E-3,7.939186E-3,3.1957254E-3,1.1137347E-2],"split_indices":[7,0,5,4,4,0,7,0,0,7,7,0,4,0,0,0,0,0,0,0,0],"split_type":[0,0,0,0,0,0,0,0,0,0,0,0,0,0,0,0,0,0,0,0,0],"sum_hessian":[1.46E2,2.7E1,1.19E2,4E0,2.3E1,7E0,1.12E2,3E0,1E0,2E1,3E0,3E1,8.2E1,1.6E1,4E0,2E0,1E0,2.7E1,3E0,4.8E1,3.4E1],"tree_param":{"num_deleted":"0","num_feature":"9","num_nodes":"21","size_leaf_vector":"1"}},{"base_weights":[3.2245799E-3,-3.0731583E-1,6.937889E-2,-4.7718645E-3,-1.6049791E-2,-1.2372346E-2,8.7899595E-2,5.303918E-3,1.7040382E-1,-3.039927E-3,3.34853E-3,6.105327E-3,1.2194272E-2],"categories":[],"categories_nodes":[],"categories_segments":[],"categories_sizes":[],"default_left":[0,0,0,0,0,0,0,0,0,0,0,0,0],"id":8,"left_children":[1,3,5,-1,-1,-1,7,9,11,-1,-1,-1,-1],"loss_changes":[3.0412285E0,4.4725895E-2,7.376266E-1,0E0,0E0,0E0,7.895773E-1,2.4457456E-1,1.7605972E-1,0E0,0E0,0E0,0E0],"parents":[2147483647,0,0,1,1,2,2,6,6,7,7,8,8],"right_children":[2,4,6,-1,-1,-1,8,10,12,-1,-1,-1,-1],"split_conditions":[2.3E1,1E0,2.5E-1,-4.7718645E-3,-1.6049791E-2,-1.2372346E-2,7E1,6.86E0,6.86E0,-3.039927E-3,3.34853E-3,6.105327E-3,1.2194272E-2],"split_indices":[7,0,5,0,0,0,7,1,1,0,0,0,0],"split_type":[0,0,0,0,0,0,0,0,0,0,0,0,0],"sum_hessian":[1.46E2,2.5E1,1.21E2,2E0,2.3E1,6E0,1.15E2,5.8E1,5.7E1,2.8E1,3E1,3.6E1,2.1E1],"tree_param":{"num_deleted":"0","num_feature":"9","num_nodes":"13","size_leaf_vector":"1"}},{"base_weights":[-3.3965532E-3,-7.559348E-2,7.165735E-2,-1.2439256E-2,-5.557805E-2,5.4199442E-2,1.3460469E-2,3.3710373E-3,-9.705803E-2,1.2525436E-1,-1.6399927E-2,-6.441629E-3,-3.8354725E-3,7.13306E-3,4.5687025E-3,-5.3387396E-3,4.2463853E-3],"categories":[],"categories_nodes":[],"categories_segments":[],"categories_sizes":[],"default_left":[0,0,0,0,0,0,0,0,0,0,0,0,0,0,0,0,0],"id":9,"left_children":[1,3,5,-1,7,9,-1,-1,11,13,15,-1,-1,-1,-1,-1,-1],"loss_changes":[8.50728E-1,2.6349342E-1,2.5097007E-1,0E0,3.7898886E-1,3.6323732E-1,0E0,0E0,2.5678456E-2,8.19546E-3,3.4789455E-1,0E0,0E0,0E0,0E0,0E0,0E0],"parents":[2147483647,0,0,1,1,2,2,4,4,5,5,8,8,9,9,10,10],"right_children":[2,4,6,-1,8,10,-1,-1,12,14,16,-1,-1,-1,-1,-1,-1],"split_conditions":[1.1E2,2.5E-1,8E0,-1.2439256E-2,7.6E-1,4E0,1.3460469E-2,3.3710373E-3,9.5E-1,2E0,6E0,-6.441629E-3,-3.8354725E-3,7.13306E-3,4.5687025E-3,-5.3387396E-3,4.2463853E-3],"split_indices":[3,5,0,0,5,0,0,0,5,0,0,0,0,0,0,0,0],"split_type":[0,0,0,0,0,0,0,0,0,0,0,0,0,0,0,0,0],"sum_hessian":[1.55E2,7.9E1,7.6E1,7E0,7.2E1,7.1E1,5E0,1.8E1,5.4E1,3.5E1,3.6E1,1.9E1,3.5E1,2.1E1,1.4E1,1.9E1,1.7E1],"tree_param":{"num_deleted":"0","num_feature":"9","num_nodes":"17","size_leaf_vector":"1"}},{"base_weights":[1.1527358E-2,-7.032288E-2,1.0891699E-1,-1.8856585E-2,-4.2940356E-2,1.5984663E-1,2.6132477E-2,9.9751525E-2,-8.827741E-2,1.0322766E-1,2.318922E-1,-7.4577215E-4,9.7154E-3,2.6401926E-3,7.070941E-3,-1.4134938E-2,-2.0400141E-3,1.0428626E-2,2.7964169E-3,7.3492303E-3,1.4014048E-2,-1.01218E-2,3.4941547E-3],"categories":[],"categories_nodes":[],"categories_segments":[],"categories_sizes":[],"default_left":[0,0,0,0,0,0,0,0,0,0,0,0,0,0,0,0,0,0,0,0,0,0,0],"id":10,"left_children":[1,3,5,-1,7,9,11,13,15,17,19,21,-1,-1,-1,-1,-1,-1,-1,-1,-1,-1,-1],"loss_changes":[1.2751063E0,7.147103E-1,3.0360442E-1,0E0,5.328134E-1,1.5962386E-1,1.3123254E-1,3.165619E-2,5.607609E-1,1.22868925E-1,3.686595E-2,3.8452083E-1,0E0,0E0,0E0,0E0,0E0,0E0,0E0,0E0,0E0,0E0,0E0],"parents":[2147483647,0,0,1,1,2,2,4,4,5,5,6,6,7,7,8,8,9,9,10,10,11,11],"right_children":[2,4,6,-1,8,10,12,14,16,18,20,22,-1,-1,-1,-1,-1,-1,-1,-1,-1,-1,-1],"split_conditions":[1.2E2,3.6E1,4E0,-1.8856585E-2,6.54E1,6.54E1,1.5E-1,8E1,8E1,1E0,1.4E2,1.6E2,9.7154E-3,2.6401926E-3,7.070941E-3,-1.4134938E-2,-2.0400141E-3,1.0428626E-2,2.7964169E-3,7.3492303E-3,1.4014048E-2,-1.01218E-2,3.4941547E-3],"split_indices":[4,3,5,0,2,2,8,4,4,0,4,4,0,0,0,0,0,0,0,0,0,0,0],"split_type":[0,0,0,0,0,0,0,0,0,0,0,0,0,0,0,0,0,0,0,0,0,0,0],"sum_hessian":[1.58E2,8.6E1,7.2E1,6E0,8E1,4.4E1,2.8E1,1.9E1,6.1E1,2.6E1,1.8E1,2.5E1,3E0,1E1,9E0,1.1E1,5E1,7E0,1.9E1,8E0,1E1,6E0,1.9E1],"tree_param":{"num_deleted":"0","num_feature":"9","num_nodes":"23","size_leaf_vector":"1"}},{"base_weights":[2.1086156E-3,-3.1114617E-1,4.6490327E-2,-1.6263507E-2,-1.7759651E-3,-2.748275E-3,1.8682902E-1,-2.722163E-1,2.5159314E-2,-9.534746E-3,2.222345E-1,-1.6839217E-2,-7.660249E-3,-1.8511517E-3,5.930116E-3,-4.18739E-3,4.629712E-3,7.406346E-3,1.3427863E-2],"categories":[],"categories_nodes":[],"categories_segments":[],"categories_sizes":[],"default_left":[0,0,0,0,0,0,0,0,0,0,0,0,0,0,0,0,0,0,0],"id":11,"left_children":[1,3,5,-1,-1,7,9,11,13,15,17,-1,-1,-1,-1,-1,-1,-1,-1],"loss_changes":[2.0164661E0,5.851972E-2,8.780937E-1,0E0,0E0,7.21268E-1,2.3154664E-1,1.7561913E-2,5.0990504E-1,5.3230394E-2,5.633986E-2,0E0,0E0,0E0,0E0,0E0,0E0,0E0,0E0],"parents":[2147483647,0,0,1,1,2,2,5,5,6,6,7,7,8,8,9,9,10,10],"right_children":[2,4,6,-1,-1,8,10,12,14,16,18,-1,-1,-1,-1,-1,-1,-1,-1],"split_conditions":[1.3E1,2.2E2,1.6E2,-1.6263507E-2,-1.7759651E-3,3.6E1,3.8E1,1.2E2,7.5E1,2.2E2,1.88E2,-1.6839217E-2,-7.660249E-3,-1.8511517E-3,5.930116E-3,-4.18739E-3,4.629712E-3,7.406346E-3,1.3427863E-2],"split_indices":[7,4,4,0,0,3,7,4,7,4,4,0,0,0,0,0,0,0,0],"split_type":[0,0,0,0,0,0,0,0,0,0,0,0,0,0,0,0,0,0,0],"sum_hessian":[1.43E2,1.7E1,1.26E2,1.6E1,1E0,9.4E1,3.2E1,8E0,8.6E1,5E0,2.7E1,4E0,4E0,5.2E1,3.4E1,3E0,2E0,1.2E1,1.5E1],"tree_param":{"num_deleted":"0","num_feature":"9","num_nodes":"19","size_leaf_vector":"1"}},{"base_weights":[-6.943862E-3,-2.4866346E-1,4.6826713E-2,-8.5778326E-2,-1.3611845E-2,-1.1445237E-2,6.746025E-2,-5.973887E-3,1.2254835E-3,-4.572404E-3,1.3957039E-1,-1.7243434E-3,8.438739E-3,4.254284E-3,1.0049677E-2],"categories":[],"categories_nodes":[],"categories_segments":[],"categories_sizes":[],"default_left":[0,0,0,0,0,0,0,0,0,0,0,0,0,0,0],"id":12,"left_children":[1,3,5,7,-1,-1,9,-1,-1,11,13,-1,-1,-1,-1],"loss_changes":[2.0002465E0,8.416128E-2,7.322954E-1,2.1511566E-2,0E0,0E0,6.135638E-1,0E0,0E0,3.169558E-1,1.8034911E-1,0E0,0E0,0E0,0E0],"parents":[2147483647,0,0,1,1,2,2,3,3,6,6,9,9,10,10],"right_children":[2,4,6,8,-1,-1,10,-1,-1,12,14,-1,-1,-1,-1],"split_conditions":[2.3E1,1E0,2.5E-1,1E2,-1.3611845E-2,-1.1445237E-2,7E1,-5.973887E-3,1.2254835E-3,1.88E2,1.2E2,-1.7243434E-3,8.438739E-3,4.254284E-3,1.0049677E-2],"split_indices":[7,0,5,4,0,0,7,0,0,4,4,0,0,0,0],"split_type":[0,0,0,0,0,0,0,0,0,0,0,0,0,0,0],"sum_hessian":[1.52E2,2.7E1,1.25E2,4E0,2.3E1,8E0,1.17E2,3E0,1E0,5.9E1,5.8E1,5.1E1,8E0,3.2E1,2.6E1],"tree_param":{"num_deleted":"0","num_feature":"9","num_nodes":"15","size_leaf_vector":"1"}},{"base_weights":[-1.0344199E-2,-1.5731135E-1,6.695516E-2,-1.3324419E-2,-9.6668564E-2,2.3440931E-2,1.6164957E-1,-7.635345E-3,-2.8351095E-2,-2.478719E-2,5.6981772E-2,1.313005E-1,1.1624529E-2,-5.6751263E-3,5.475423E-3,3.170428E-3,-3.3822854E-3,-5.627201E-4,5.055155E-3,4.655457E-3,9.802229E-3],"categories":[],"categories_nodes":[],"categories_segments":[],"categories_sizes":[],"default_left":[0,0,0,0,0,0,0,0,0,0,0,0,0,0,0,0,0,0,0,0,0],"id":13,"left_children":[1,3,5,-1,7,9,11,-1,13,15,17,19,-1,-1,-1,-1,-1,-1,-1,-1,-1],"loss_changes":[1.7146028E0,3.1852055E-1,4.0414557E-1,0E0,1.2966451E-1,1.1302763E-1,3.612262E-2,0E0,2.1199143E-1,1.13907546E-1,1.2457536E-1,4.10904E-2,0E0,0E0,0E0,0E0,0E0,0E0,0E0,0E0,0E0],"parents":[2147483647,0,0,1,1,2,2,4,4,5,5,6,6,8,8,9,9,10,10,11,11],"right_children":[2,4,6,-1,8,10,12,-1,14,16,18,20,-1,-1,-1,-1,-1,-1,-1,-1,-1],"split_conditions":[3.8E1,1.5E1,6.86E0,-1.3324419E-2,6.86E0,7.5E1,7.5E0,-7.635345E-3,6E0,3E0,2.5E-1,1E2,1.1624529E-2,-5.6751263E-3,5.475423E-3,3.170428E-3,-3.3822854E-3,-5.627201E-4,5.055155E-3,4.655457E-3,9.802229E-3],"split_indices":[7,7,1,0,1,7,1,0,0,0,8,7,0,0,0,0,0,0,0,0,0],"split_type":[0,0,0,0,0,0,0,0,0,0,0,0,0,0,0,0,0,0,0,0,0],"sum_hessian":[1.49E2,5.1E1,9.8E1,1.7E1,3.4E1,6.8E1,3E1,1.8E1,1.6E1,2.8E1,4E1,2.3E1,7E0,1E1,6E0,9E0,1.9E1,1.6E1,2.4E1,1.6E1,7E0],"tree_param":{"num_deleted":"0","num_feature":"9","num_nodes":"21","size_leaf_vector":"1"}},{"base_weights":[-1.0153138E-2,-1.4664444E-1,6.1041843E-2,-2.6044366E-1,-8.012837E-2,1.0625607E-3,1.655468E-1,-1.4611356E-2,-1.6875146E-1,-1.08563565E-1,7.658382E-3,-4.3258384E-2,1.8933803E-1,9.278339E-2,9.183495E-3,-1.0581597E-3,-9.491116E-3,-9.817456E-3,-4.1576247E-3,-1.37152895E-2,-1.3331104E-5,2.2368E-3,9.920838E-3,3.3375137E-3,7.52621E-3],"categories":[],"categories_nodes":[],"categories_segments":[],"categories_sizes":[],"default_left":[0,0,0,0,0,0,0,0,0,0,0,0,0,0,0,0,0,0,0,0,0,0,0,0,0],"id":14,"left_children":[1,3,5,7,9,11,13,-1,15,17,-1,19,21,23,-1,-1,-1,-1,-1,-1,-1,-1,-1,-1,-1],"loss_changes":[1.4179882E0,3.5760486E-1,6.0156476E-1,3.143549E-3,2.3554438E-1,5.2555245E-1,2.9112995E-2,0E0,1.7751426E-2,5.0594807E-2,0E0,5.065167E-1,6.8772435E-3,3.4810305E-3,0E0,0E0,0E0,0E0,0E0,0E0,0E0,0E0,0E0,0E0,0E0],"parents":[2147483647,0,0,1,1,2,2,3,3,4,4,5,5,6,6,8,8,9,9,11,11,12,12,13,13],"right_children":[2,4,6,8,10,12,14,-1,16,18,-1,20,22,24,-1,-1,-1,-1,-1,-1,-1,-1,-1,-1,-1],"split_conditions":[3.8E1,1.5E1,6.86E0,1E1,7.5E0,1.6E2,5E1,-1.4611356E-2,5.86E0,9E1,7.658382E-3,6.54E1,3.9E1,7.5E0,9.183495E-3,-1.0581597E-3,-9.491116E-3,-9.817456E-3,-4.1576247E-3,-1.37152895E-2,-1.3331104E-5,2.2368E-3,9.920838E-3,3.3375137E-3,7.52621E-3],"split_indices":[7,7,1,7,1,4,7,0,1,4,0,2,7,1,0,0,0,0,0,0,0,0,0,0,0],"split_type":[0,0,0,0,0,0,0,0,0,0,0,0,0,0,0,0,0,0,0,0,0,0,0,0,0],"sum_hessian":[1.44E2,4.9E1,9.5E1,1.7E1,3.2E1,6.1E1,3.4E1,1.1E1,6E0,2.9E1,3E0,5E1,1.1E1,8E0,2.6E1,1E0,5E0,5E0,2.4E1,7E0,4.3E1,1E0,1E1,7E0,1E0],"tree_param":{"num_deleted":"0","num_feature":"9","num_nodes":"25","size_leaf_vector":"1"}},{"base_weights":[-2.6414366E-3,-1.2899053E-1,7.131433E-2,-2.4436115E-1,-6.625993E-2,-1.0226549E-2,9.244617E-2,-2.5564408E-1,-1.0317058E-3,-8.8398665E-2,1.0705597E-2,6.802819E-2,1.2071219E-2,-3.6739558E-3,-1.3101868E-2,-5.405631E-3,4.5706327E-3,5.052496E-3,-5.9630163E-3],"categories":[],"categories_nodes":[],"categories_segments":[],"categories_sizes":[],"default_left":[0,0,0,0,0,0,0,0,0,0,0,0,0,0,0,0,0,0,0],"id":15,"left_children":[1,3,5,7,9,-1,11,13,-1,15,-1,17,-1,-1,-1,-1,-1,-1,-1],"loss_changes":[1.3921468E0,3.8185847E-1,5.668456E-1,4.268658E-2,2.4858911E-1,0E0,3.0369806E-1,1.7092228E-3,0E0,1.3395062E-1,0E0,4.8826474E-1,0E0,0E0,0E0,0E0,0E0,0E0,0E0],"parents":[2147483647,0,0,1,1,2,2,3,3,4,4,6,6,7,7,9,9,11,11],"right_children":[2,4,6,8,10,-1,12,14,-1,16,-1,18,-1,-1,-1,-1,-1,-1,-1],"split_conditions":[4.5E1,1.5E1,2.5E-1,2.2E2,9E0,-1.0226549E-2,1.88E2,1E0,-1.0317058E-3,1.88E2,1.0705597E-2,4E0,1.2071219E-2,-3.6739558E-3,-1.3101868E-2,-5.405631E-3,4.5706327E-3,5.052496E-3,-5.9630163E-3],"split_indices":[7,7,5,4,0,0,4,0,0,4,0,5,0,0,0,0,0,0,0],"split_type":[0,0,0,0,0,0,0,0,0,0,0,0,0,0,0,0,0,0,0],"sum_hessian":[1.47E2,5.4E1,9.3E1,1.8E1,3.6E1,6E0,8.7E1,1.7E1,1E0,3.4E1,2E0,7.6E1,1.1E1,1E0,1.6E1,3.1E1,3E0,6.5E1,1.1E1],"tree_param":{"num_deleted":"0","num_feature":"9","num_nodes":"19","size_leaf_vector":"1"}},{"base_weights":[1.6675754E-2,-1.1221662E-1,8.3021544E-2,-2.537666E-1,-5.2390445E-2,5.5193212E-2,1.7032237E-1,-3.5821074E-3,-1.3113262E-2,-1.2587386E-1,2.4003545E-2,-2.129391E-1,7.838128E-2,1.15093544E-1,1.0754407E-2,-8.571168E-3,3.8202635E-3,-4.4160034E-3,6.134722E-3,-1.4468727E-2,-2.0022755E-3,9.823588E-3,2.9519491E-3,7.4739655E-4,9.224536E-3],"categories":[],"categories_nodes":[],"categories_segments":[],"categories_sizes":[],"default_left":[0,0,0,0,0,0,0,0,0,0,0,0,0,0,0,0,0,0,0,0,0,0,0,0,0],"id":16,"left_children":[1,3,5,7,9,11,13,-1,-1,15,17,19,21,23,-1,-1,-1,-1,-1,-1,-1,-1,-1,-1,-1],"loss_changes":[1.2065217E0,3.9318794E-1,2.1653694E-1,2.8800964E-3,1.9950059E-1,4.6434832E-1,2.963674E-2,0E0,0E0,1.7894456E-1,2.1037209E-1,6.770301E-2,1.4143795E-1,8.064011E-2,0E0,0E0,0E0,0E0,0E0,0E0,0E0,0E0,0E0,0E0,0E0],"parents":[2147483647,0,0,1,1,2,2,3,3,4,4,5,5,6,6,9,9,10,10,11,11,12,12,13,13],"right_children":[2,4,6,8,10,12,14,-1,-1,16,18,20,22,24,-1,-1,-1,-1,-1,-1,-1,-1,-1,-1,-1],"split_conditions":[4.5E1,1.3E1,1.6E2,1E0,6E0,3.6E1,1.88E2,-3.5821074E-3,-1.3113262E-2,1.88E2,1.1E2,1.2E2,1E0,8E1,1.0754407E-2,-8.571168E-3,3.8202635E-3,-4.4160034E-3,6.134722E-3,-1.4468727E-2,-2.0022755E-3,9.823588E-3,2.9519491E-3,7.4739655E-4,9.224536E-3],"split_indices":[7,7,4,0,0,3,4,0,0,4,3,4,0,7,0,0,0,0,0,0,0,0,0,0,0],"split_type":[0,0,0,0,0,0,0,0,0,0,0,0,0,0,0,0,0,0,0,0,0,0,0,0,0],"sum_hessian":[1.39E2,4.7E1,9.2E1,1.3E1,3.4E1,7.1E1,2.1E1,1E0,1.2E1,1.7E1,1.7E1,5E0,6.6E1,1.1E1,1E1,1.4E1,3E0,8E0,9E0,3E0,2E0,8E0,5.8E1,5E0,6E0],"tree_param":{"num_deleted":"0","num_feature":"9","num_nodes":"25","size_leaf_vector":"1"}},{"base_weights":[-8.135209E-3,-6.904378E-2,5.8893014E-2,-9.487793E-2,3.6993403E-2,2.8963434E-2,1.5996574E-1,-2.7649704E-1,-5.114125E-2,2.350346E-3,2.8168451E-2,1.1181717E-1,-1.322563E-2,3.0840067E-3,1.0638454E-2,-1.587837E-2,-5.7482203E-3,-1.0534312E-2,-1.0820614E-3,2.3818936E-4,2.3439187E-3,2.7747385E-3,9.116182E-3,-4.6033678E-3,4.4791405E-3],"categories":[],"categories_nodes":[],"categories_segments":[],"categories_sizes":[],"default_left":[0,0,0,0,0,0,0,0,0,0,0,0,0,0,0,0,0,0,0,0,0,0,0,0,0],"id":17,"left_children":[1,3,5,7,9,11,13,15,17,-1,19,21,23,-1,-1,-1,-1,-1,-1,-1,-1,-1,-1,-1,-1],"loss_changes":[6.0829E-1,2.171815E-1,2.1014638E-1,4.8629487E-1,8.978881E-5,1.9722806E-1,6.99133E-2,4.310149E-2,2.4018267E-1,0E0,4.5935754E-3,6.533277E-2,3.1626022E-1,0E0,0E0,0E0,0E0,0E0,0E0,0E0,0E0,0E0,0E0,0E0,0E0],"parents":[2147483647,0,0,1,1,2,2,3,3,4,4,5,5,6,6,7,7,8,8,10,10,11,11,12,12],"right_children":[2,4,6,8,10,12,14,16,18,-1,20,22,24,-1,-1,-1,-1,-1,-1,-1,-1,-1,-1,-1,-1],"split_conditions":[1.1E2,1.6E2,1.6E2,3E0,1.88E2,1E0,6.54E1,1.2E2,8E1,2.350346E-3,2.2E2,1E2,6E0,3.0840067E-3,1.0638454E-2,-1.587837E-2,-5.7482203E-3,-1.0534312E-2,-1.0820614E-3,2.3818936E-4,2.3439187E-3,2.7747385E-3,9.116182E-3,-4.6033678E-3,4.4791405E-3],"split_indices":[3,4,4,0,4,0,2,4,4,0,4,4,0,0,0,0,0,0,0,0,0,0,0,0,0],"split_type":[0,0,0,0,0,0,0,0,0,0,0,0,0,0,0,0,0,0,0,0,0,0,0,0,0],"sum_hessian":[1.47E2,7.7E1,7E1,6.2E1,1.5E1,5.5E1,1.5E1,1.1E1,5.1E1,5E0,1E1,1.8E1,3.7E1,6E0,9E0,8E0,3E0,7E0,4.4E1,5E0,5E0,1.1E1,7E0,2.1E1,1.6E1],"tree_param":{"num_deleted":"0","num_feature":"9","num_nodes":"25","size_leaf_vector":"1"}},{"base_weights":[5.990375E-3,-1.8426785E-1,5.0799303E-2,-1.2993823E-2,-1.3079613E-1,1.7830988E-2,1.5704726E-1,-9.034082E-3,7.402738E-3,-2.2156835E-1,3.939194E-2,4.7622483E-2,1.7265032E-1,-3.6414408E-3,5.595528E-3,-1.4267384E-2,-4.3226047E-3,-4.4009258E-4,5.1518227E-3,3.7317418E-3,-1.5106731E-3,5.7643484E-3,1.0836644E-2],"categories":[],"categories_nodes":[],"categories_segments":[],"categories_sizes":[],"default_left":[0,0,0,0,0,0,0,0,0,0,0,0,0,0,0,0,0,0,0,0,0,0,0],"id":18,"left_children":[1,3,5,-1,7,9,11,-1,13,15,17,19,21,-1,-1,-1,-1,-1,-1,-1,-1,-1,-1],"loss_changes":[1.296676E0,8.325386E-2,4.2804602E-1,0E0,1.3232583E-1,4.9908736E-1,4.1291475E-2,0E0,5.8459267E-2,4.4272095E-2,2.7082667E-1,1.2767636E-2,3.823155E-2,0E0,0E0,0E0,0E0,0E0,0E0,0E0,0E0,0E0,0E0],"parents":[2147483647,0,0,1,1,2,2,4,4,5,5,6,6,8,8,9,9,10,10,11,11,12,12],"right_children":[2,4,6,-1,8,10,12,-1,14,16,18,20,22,-1,-1,-1,-1,-1,-1,-1,-1,-1,-1],"split_conditions":[3E1,1E1,1.6E2,-1.2993823E-2,1.2E2,3.6E1,3.9E1,-9.034082E-3,3.6E1,1.2E2,9E1,3E0,1.88E2,-3.6414408E-3,5.595528E-3,-1.4267384E-2,-4.3226047E-3,-4.4009258E-4,5.1518227E-3,3.7317418E-3,-1.5106731E-3,5.7643484E-3,1.0836644E-2],"split_indices":[7,7,4,0,4,3,7,0,3,4,7,0,4,0,0,0,0,0,0,0,0,0,0],"split_type":[0,0,0,0,0,0,0,0,0,0,0,0,0,0,0,0,0,0,0,0,0,0,0],"sum_hessian":[1.5E2,2.8E1,1.22E2,1E1,1.8E1,9.4E1,2.8E1,1.3E1,5E0,7E0,8.7E1,4E0,2.4E1,3E0,2E0,4E0,3E0,5E1,3.7E1,3E0,1E0,1.2E1,1.2E1],"tree_param":{"num_deleted":"0","num_feature":"9","num_nodes":"23","size_leaf_vector":"1"}},{"base_weights":[6.077747E-3,-1.5977108E-1,4.8551142E-2,-2.0938209E-1,-8.8116944E-2,-1.5020261E-2,1.4024796E-1,-2.2085434E-1,-6.456442E-4,-1.3917579E-1,7.432412E-2,-4.854812E-2,1.2255891E-1,1.8770464E-1,1.08168334E-1,-3.2370777E-3,-1.1347289E-2,-8.019382E-3,1.8235669E-3,4.94125E-4,6.691225E-3,-1.0772601E-2,-1.0436268E-3,3.2948237E-3,7.840933E-3,4.041364E-3,1.0623383E-2,1.3468268E-3,7.902745E-3],"categories":[],"categories_nodes":[],"categories_segments":[],"categories_sizes":[],"default_left":[0,0,0,0,0,0,0,0,0,0,0,0,0,0,0,0,0,0,0,0,0,0,0,0,0,0,0,0,0],"id":19,"left_children":[1,3,5,7,9,11,13,15,-1,17,19,21,23,25,27,-1,-1,-1,-1,-1,-1,-1,-1,-1,-1,-1,-1,-1,-1],"loss_changes":[1.0362048E0,8.819485E-2,6.84134E-1,3.54653E-2,1.2646088E-1,3.2884148E-1,5.277121E-2,5.223155E-4,0E0,4.6833336E-2,1.4014682E-2,2.5879526E-1,1.6843572E-2,3.0465722E-2,1.2136617E-1,0E0,0E0,0E0,0E0,0E0,0E0,0E0,0E0,0E0,0E0,0E0,0E0,0E0,0E0],"parents":[2147483647,0,0,1,1,2,2,3,3,4,4,5,5,6,6,7,7,9,9,10,10,11,11,12,12,13,13,14,14],"right_children":[2,4,6,8,10,12,14,16,-1,18,20,22,24,26,28,-1,-1,-1,-1,-1,-1,-1,-1,-1,-1,-1,-1,-1,-1],"split_conditions":[3E1,1.3E1,6.86E0,2.2E2,6.86E0,1.6E2,5E0,1E0,-6.456442E-4,2.2E2,1E0,3E0,1.88E2,8E1,6E0,-3.2370777E-3,-1.1347289E-2,-8.019382E-3,1.8235669E-3,4.94125E-4,6.691225E-3,-1.0772601E-2,-1.0436268E-3,3.2948237E-3,7.840933E-3,4.041364E-3,1.0623383E-2,1.3468268E-3,7.902745E-3],"split_indices":[7,7,1,4,1,4,0,0,0,4,0,0,4,4,0,0,0,0,0,0,0,0,0,0,0,0,0,0,0],"split_type":[0,0,0,0,0,0,0,0,0,0,0,0,0,0,0,0,0,0,0,0,0,0,0,0,0,0,0,0,0],"sum_hessian":[1.45E2,2.9E1,1.16E2,1.6E1,1.3E1,6.9E1,4.7E1,1.5E1,1E0,1E1,3E0,5.6E1,1.3E1,1.7E1,3E1,1E0,1.4E1,9E0,1E0,2E0,1E0,7E0,4.9E1,6E0,7E0,4E0,1.3E1,1.2E1,1.8E1],"tree_param":{"num_deleted":"0","num_feature":"9","num_nodes":"29","size_leaf_vector":"1"}},{"base_weights":[1.3162789E-2,-1.0686027E-1,9.129562E-2,-2.0647676E-1,-6.594344E-2,-9.171568E-3,1.0919294E-1,-1.1926178E-2,-1.2662081E-1,-1.24594055E-1,4.2259963E-3,6.581659E-2,1.4642367E-1,-7.17638E-3,-6.295033E-4,-1.0613154E-2,-5.3487914E-3,4.82206E-3,-2.9970189E-3,9.531584E-3,4.7680826E-4,5.2638417E-3,8.14687E-3],"categories":[],"categories_nodes":[],"categories_segments":[],"categories_sizes":[],"default_left":[0,0,0,0,0,0,0,0,0,0,0,0,0,0,0,0,0,0,0,0,0,0,0],"id":20,"left_children":[1,3,5,7,9,-1,11,-1,13,15,17,19,21,-1,-1,-1,-1,-1,-1,-1,-1,-1,-1],"loss_changes":[1.4257948E0,2.3094368E-1,4.7238195E-1,1.3303161E-2,1.8160765E-1,0E0,1.3086212E-1,0E0,1.1688225E-2,1.4362723E-2,1.3004012E-1,2.9321724E-1,1.4102817E-2,0E0,0E0,0E0,0E0,0E0,0E0,0E0,0E0,0E0,0E0],"parents":[2147483647,0,0,1,1,2,2,3,3,4,4,6,6,8,8,9,9,10,10,11,11,12,12],"right_children":[2,4,6,8,10,-1,12,-1,14,16,18,20,22,-1,-1,-1,-1,-1,-1,-1,-1,-1,-1],"split_conditions":[4.5E1,1.3E1,2.5E-1,8E0,1.2E2,-9.171568E-3,1.1E2,-1.1926178E-2,2.2E2,5.86E0,1.4E2,7.6E-1,1.2E2,-7.17638E-3,-6.295033E-4,-1.0613154E-2,-5.3487914E-3,4.82206E-3,-2.9970189E-3,9.531584E-3,4.7680826E-4,5.2638417E-3,8.14687E-3],"split_indices":[7,7,5,7,4,0,3,0,4,1,4,5,4,0,0,0,0,0,0,0,0,0,0],"split_type":[0,0,0,0,0,0,0,0,0,0,0,0,0,0,0,0,0,0,0,0,0,0,0],"sum_hessian":[1.5E2,5.9E1,9.1E1,1.6E1,4.3E1,5E0,8.6E1,1E1,6E0,2.3E1,2E1,4.1E1,4.5E1,5E0,1E0,2E0,2.1E1,8E0,1.2E1,1.2E1,2.9E1,1.5E1,3E1],"tree_param":{"num_deleted":"0","num_feature":"9","num_nodes":"23","size_leaf_vector":"1"}},{"base_weights":[-7.971999E-3,-9.854928E-2,7.4257694E-2,-1.6802847E-1,-5.6832705E-2,-7.996987E-3,8.6237304E-2,-5.4466546E-2,-1.8706568E-1,-7.0339955E-2,9.582478E-2,1.2355677E-1,-1.0279352E-2,-4.0488527E-3,1.2893871E-3,-9.759571E-3,-6.1376544E-4,2.812113E-3,-4.277229E-3,1.2558739E-3,7.6986672E-3,4.748872E-3,9.386032E-3,-1.0209269E-2,6.2377E-3],"categories":[],"categories_nodes":[],"categories_segments":[],"categories_sizes":[],"default_left":[0,0,0,0,0,0,0,0,0,0,0,0,0,0,0,0,0,0,0,0,0,0,0,0,0],"id":21,"left_children":[1,3,5,7,9,-1,11,13,15,17,19,21,23,-1,-1,-1,-1,-1,-1,-1,-1,-1,-1,-1,-1],"loss_changes":[1.0649542E0,1.8754399E-1,2.2421232E-1,4.3858767E-2,9.746756E-2,0E0,2.6061052E-1,1.2726123E-2,2.7430296E-2,8.372125E-2,1.2578692E-2,7.752633E-2,5.7533234E-1,0E0,0E0,0E0,0E0,0E0,0E0,0E0,0E0,0E0,0E0,0E0,0E0],"parents":[2147483647,0,0,1,1,2,2,3,3,4,4,6,6,7,7,8,8,9,9,10,10,11,11,12,12],"right_children":[2,4,6,8,10,-1,12,14,16,18,20,22,24,-1,-1,-1,-1,-1,-1,-1,-1,-1,-1,-1,-1],"split_conditions":[5.2E1,2.3E1,2.5E-1,1E0,9E0,-7.996987E-3,3E0,1E2,2.2E2,2E0,1.5E-1,1.2E2,1.2E2,-4.0488527E-3,1.2893871E-3,-9.759571E-3,-6.1376544E-4,2.812113E-3,-4.277229E-3,1.2558739E-3,7.6986672E-3,4.748872E-3,9.386032E-3,-1.0209269E-2,6.2377E-3],"split_indices":[7,7,5,0,0,0,5,4,4,0,8,7,4,0,0,0,0,0,0,0,0,0,0,0,0],"split_type":[0,0,0,0,0,0,0,0,0,0,0,0,0,0,0,0,0,0,0,0,0,0,0,0,0],"sum_hessian":[1.41E2,6.7E1,7.4E1,2.4E1,4.3E1,3E0,7.1E1,4E0,2E1,4E1,3E0,5.1E1,2E1,3E0,1E0,1.9E1,1E0,4E0,3.6E1,2E0,1E0,3.7E1,1.4E1,8E0,1.2E1],"tree_param":{"num_deleted":"0","num_feature":"9","num_nodes":"25","size_leaf_vector":"1"}},{"base_weights":[-7.724468E-3,-1.1560078E-1,5.4634273E-2,-1.307012E-1,1.1338E-1,-8.785411E-3,7.175255E-2,-2.1377027E-1,-9.8359495E-2,5.1090658E-2,7.5062006E-3,1.5527186E-1,5.952459E-2,-2.7567751E-3,-1.1086588E-2,-7.0027136E-3,-2.8939745E-3,6.8436E-3,-3.0118003E-3,2.6133806E-3,8.617709E-3,4.779498E-3,-8.6445434E-5],"categories":[],"categories_nodes":[],"categories_segments":[],"categories_sizes":[],"default_left":[0,0,0,0,0,0,0,0,0,0,0,0,0,0,0,0,0,0,0,0,0,0,0],"id":22,"left_children":[1,3,5,7,9,-1,11,13,15,17,-1,19,21,-1,-1,-1,-1,-1,-1,-1,-1,-1,-1],"loss_changes":[1.0288246E0,2.0845044E-1,3.9508495E-1,1.2136322E-1,1.4851093E-3,0E0,8.369321E-2,5.456269E-3,5.9405953E-2,3.6893874E-2,0E0,1.0346502E-2,1.7910478E-1,0E0,0E0,0E0,0E0,0E0,0E0,0E0,0E0,0E0,0E0],"parents":[2147483647,0,0,1,1,2,2,3,3,4,4,6,6,7,7,8,8,9,9,11,11,12,12],"right_children":[2,4,6,8,10,-1,12,14,16,18,-1,20,22,-1,-1,-1,-1,-1,-1,-1,-1,-1,-1],"split_conditions":[3.8E1,9E0,2.5E-1,1E1,1.5E-1,-8.785411E-3,7.6E-1,1E0,6E0,9E1,7.5062006E-3,5.2E1,1.5E-1,-2.7567751E-3,-1.1086588E-2,-7.0027136E-3,-2.8939745E-3,6.8436E-3,-3.0118003E-3,2.6133806E-3,8.617709E-3,4.779498E-3,-8.6445434E-5],"split_indices":[7,0,5,7,8,0,5,0,0,2,0,7,8,0,0,0,0,0,0,0,0,0,0],"split_type":[0,0,0,0,0,0,0,0,0,0,0,0,0,0,0,0,0,0,0,0,0,0,0],"sum_hessian":[1.51E2,5.5E1,9.6E1,5.2E1,3E0,6E0,9E1,1.3E1,3.9E1,2E0,1E0,1E1,8E1,1E0,1.2E1,1.8E1,2.1E1,1E0,1E0,2E0,8E0,5E1,3E1],"tree_param":{"num_deleted":"0","num_feature":"9","num_nodes":"23","size_leaf_vector":"1"}},{"base_weights":[1.2242899E-2,-1.360793E-1,4.9830973E-2,-8.385474E-3,-6.332355E-2,-7.0889583E-3,1.1486404E-1,5.434634E-3,-1.13626346E-1,-1.9809918E-1,2.2672784E-2,8.69496E-2,9.048021E-3,-7.7673974E-3,1.079975E-3,-1.1440921E-2,1.1913673E-3,-8.760698E-3,2.4437685E-3,-1.4603427E-3,5.5507687E-3],"categories":[],"categories_nodes":[],"categories_segments":[],"categories_sizes":[],"default_left":[0,0,0,0,0,0,0,0,0,0,0,0,0,0,0,0,0,0,0,0,0],"id":23,"left_children":[1,3,5,-1,7,9,11,-1,13,15,17,19,-1,-1,-1,-1,-1,-1,-1,-1,-1],"loss_changes":[8.5420316E-1,6.071955E-2,4.5241886E-1,0E0,1.0753223E-1,3.7968805E-1,8.9433014E-2,0E0,5.4132E-2,6.680885E-2,3.0930203E-1,1.2064898E-1,0E0,0E0,0E0,0E0,0E0,0E0,0E0,0E0,0E0],"parents":[2147483647,0,0,1,1,2,2,4,4,5,5,6,6,8,8,9,9,10,10,11,11],"right_children":[2,4,6,-1,8,10,12,-1,14,16,18,20,-1,-1,-1,-1,-1,-1,-1,-1,-1],"split_conditions":[3E1,1.2E2,1.2E2,-8.385474E-3,1.3E2,5.86E0,1.88E2,5.434634E-3,2.2E2,1.8E2,2.5E-1,3.6E1,9.048021E-3,-7.7673974E-3,1.079975E-3,-1.1440921E-2,1.1913673E-3,-8.760698E-3,2.4437685E-3,-1.4603427E-3,5.5507687E-3],"split_indices":[7,4,4,0,4,1,4,0,4,7,5,3,0,0,0,0,0,0,0,0,0],"split_type":[0,0,0,0,0,0,0,0,0,0,0,0,0,0,0,0,0,0,0,0,0],"sum_hessian":[1.51E2,3E1,1.21E2,2E1,1E1,6.5E1,5.6E1,2E0,8E0,8E0,5.7E1,4.1E1,1.5E1,6E0,2E0,7E0,1E0,6E0,5.1E1,7E0,3.4E1],"tree_param":{"num_deleted":"0","num_feature":"9","num_nodes":"21","size_leaf_vector":"1"}},{"base_weights":[-1.6641498E-2,-4.1548662E-2,7.443431E-2,-2.1389468E-1,-2.2193609E-2,4.1350096E-2,7.903221E-3,-1.2776921E-2,-5.2242903E-3,-8.937738E-3,-8.022876E-3,2.4891037E-2,4.005877E-3,5.5553503E-3,-1.5877234E-3,-2.173634E-4,3.781744E-3],"categories":[],"categories_nodes":[],"categories_segments":[],"categories_sizes":[],"default_left":[0,0,0,0,0,0,0,0,0,0,0,0,0,0,0,0,0],"id":24,"left_children":[1,3,5,7,9,11,-1,-1,-1,-1,13,15,-1,-1,-1,-1,-1],"loss_changes":[3.4789553E-1,3.955449E-1,8.476961E-2,2.7974188E-2,2.4039178E-1,1.3957679E-2,0E0,0E0,0E0,0E0,2.8906944E-1,2.8518422E-2,0E0,0E0,0E0,0E0,0E0],"parents":[2147483647,0,0,1,1,2,2,3,3,4,4,5,5,10,10,11,11],"right_children":[2,4,6,8,10,12,-1,-1,-1,-1,14,16,-1,-1,-1,-1,-1],"split_conditions":[1.6E2,3.6E1,6.54E1,1.2E2,2.5E-1,2.2E2,7.903221E-3,-1.2776921E-2,-5.2242903E-3,-8.937738E-3,7.6E-1,3E0,4.005877E-3,5.5553503E-3,-1.5877234E-3,-2.173634E-4,3.781744E-3],"split_indices":[4,3,2,4,5,4,0,0,0,0,5,0,0,0,0,0,0],"split_type":[0,0,0,0,0,0,0,0,0,0,0,0,0,0,0,0,0],"sum_hessian":[1.51E2,1.19E2,3.2E1,1.1E1,1.08E2,2.4E1,8E0,7E0,4E0,8E0,1E2,1.8E1,6E0,1.6E1,8.4E1,1.2E1,6E0],"tree_param":{"num_deleted":"0","num_feature":"9","num_nodes":"17","size_leaf_vector":"1"}},{"base_weights":[2.09291E-3,-4.034401E-2,6.1336655E-2,-1.2254389E-2,-1.962433E-2,7.840048E-3,4.252222E-2,-8.4683284E-2,1.4473358E-2,1.05359005E-2,1.3315915E-1,1.4521753E-3,-5.5334633E-3,3.829096E-3,-1.0715387E-3,-4.2389943E-3,4.0791873E-3,8.276188E-3,2.0899046E-3],"categories":[],"categories_nodes":[],"categories_segments":[],"categories_sizes":[],"default_left":[0,0,0,0,0,0,0,0,0,0,0,0,0,0,0,0,0,0,0],"id":25,"left_children":[1,3,5,-1,7,-1,9,11,13,15,17,-1,-1,-1,-1,-1,-1,-1,-1],"loss_changes":[3.7959287E-1,3.6850613E-1,1.0648723E-1,0E0,1.8091282E-1,0E0,1.551507E-1,8.596265E-2,1.22058734E-1,2.8456792E-1,3.4477532E-2,0E0,0E0,0E0,0E0,0E0,0E0,0E0,0E0],"parents":[2147483647,0,0,1,1,2,2,4,4,6,6,7,7,8,8,9,9,10,10],"right_children":[2,4,6,-1,8,-1,10,12,14,16,18,-1,-1,-1,-1,-1,-1,-1,-1],"split_conditions":[1.2E2,3.6E1,2E0,-1.2254389E-2,9E1,7.840048E-3,6E0,1E0,7.6E-1,1.6E2,9E1,1.4521753E-3,-5.5334633E-3,3.829096E-3,-1.0715387E-3,-4.2389943E-3,4.0791873E-3,8.276188E-3,2.0899046E-3],"split_indices":[4,3,0,0,4,0,0,0,5,4,2,0,0,0,0,0,0,0,0],"split_type":[0,0,0,0,0,0,0,0,0,0,0,0,0,0,0,0,0,0,0],"sum_hessian":[1.49E2,8.7E1,6.2E1,7E0,8E1,9E0,5.3E1,2.7E1,5.3E1,4E1,1.3E1,5E0,2.2E1,1.9E1,3.4E1,1.7E1,2.3E1,9E0,4E0],"tree_param":{"num_deleted":"0","num_feature":"9","num_nodes":"19","size_leaf_vector":"1"}},{"base_weights":[3.1713552E-3,-1.8042956E-1,2.5743997E-2,-1.0335404E-2,-4.0637585E-3,-8.277078E-3,3.7976034E-2,-3.1751562E-3,8.266842E-2,-6.739771E-4,6.1586685E-3,-2.7075612E-3,5.1063914E-3],"categories":[],"categories_nodes":[],"categories_segments":[],"categories_sizes":[],"default_left":[0,0,0,0,0,0,0,0,0,0,0,0,0],"id":26,"left_children":[1,3,5,-1,-1,-1,7,9,11,-1,-1,-1,-1],"loss_changes":[6.055768E-1,2.4889827E-2,3.1046218E-1,0E0,0E0,0E0,2.2647731E-1,8.6286664E-2,1.6261363E-1,0E0,0E0,0E0,0E0],"parents":[2147483647,0,0,1,1,2,2,6,6,7,7,8,8],"right_children":[2,4,6,-1,-1,-1,8,10,12,-1,-1,-1,-1],"split_conditions":[1.3E1,1E1,2.5E-1,-1.0335404E-2,-4.0637585E-3,-8.277078E-3,7E1,7.5E0,3.6E1,-6.739771E-4,6.1586685E-3,-2.7075612E-3,5.1063914E-3],"split_indices":[7,7,5,0,0,0,7,1,3,0,0,0,0],"split_type":[0,0,0,0,0,0,0,0,0,0,0,0,0],"sum_hessian":[1.44E2,1.5E1,1.29E2,1.1E1,4E0,7E0,1.22E2,6.4E1,5.8E1,6E1,4E0,7E0,5.1E1],"tree_param":{"num_deleted":"0","num_feature":"9","num_nodes":"13","size_leaf_vector":"1"}},{"base_weights":[6.1811204E-3,-2.7810432E-2,5.8504004E-2,-5.8812648E-2,6.1187945E-2,3.913175E-2,1.04063E-1,-2.1669985E-1,-1.7553858E-2,1.9926758E-2,5.039429E-3,8.05221E-2,-4.349837E-2,5.1985797E-2,9.543679E-3,-1.2769758E-2,-4.798464E-3,-6.666682E-3,1.0728675E-3,4.1761782E-4,1.4327241E-3,1.4696802E-3,6.011345E-3,-3.9698193E-3,1.179069E-3,1.0967858E-3,3.9189965E-3],"categories":[],"categories_nodes":[],"categories_segments":[],"categories_sizes":[],"default_left":[0,0,0,0,0,0,0,0,0,0,0,0,0,0,0,0,0,0,0,0,0,0,0,0,0,0,0],"id":27,"left_children":[1,3,5,7,9,11,13,15,17,19,-1,21,23,25,-1,-1,-1,-1,-1,-1,-1,-1,-1,-1,-1,-1,-1],"loss_changes":[2.666289E-1,2.5468102E-1,4.8000082E-2,4.3916404E-1,3.7206866E-2,1.5056641E-1,6.693177E-2,4.0893734E-2,2.5127998E-1,1.0739034E-3,0E0,5.533746E-2,3.7992723E-2,7.7984296E-3,0E0,0E0,0E0,0E0,0E0,0E0,0E0,0E0,0E0,0E0,0E0,0E0,0E0],"parents":[2147483647,0,0,1,1,2,2,3,3,4,4,5,5,6,6,7,7,8,8,9,9,11,11,12,12,13,13],"right_children":[2,4,6,8,10,12,14,16,18,20,-1,22,24,26,-1,-1,-1,-1,-1,-1,-1,-1,-1,-1,-1,-1,-1],"split_conditions":[5E-1,1.6E2,6E0,6E0,2.2E2,4E0,1E2,1.5E2,9E1,1.88E2,5.039429E-3,1.2E2,1.6E2,8E1,9.543679E-3,-1.2769758E-2,-4.798464E-3,-6.666682E-3,1.0728675E-3,4.1761782E-4,1.4327241E-3,1.4696802E-3,6.011345E-3,-3.9698193E-3,1.179069E-3,1.0967858E-3,3.9189965E-3],"split_indices":[6,4,0,0,4,0,4,4,4,4,0,4,4,4,0,0,0,0,0,0,0,0,0,0,0,0,0],"split_type":[0,0,0,0,0,0,0,0,0,0,0,0,0,0,0,0,0,0,0,0,0,0,0,0,0,0,0],"sum_hessian":[1.48E2,9E1,5.8E1,6.7E1,2.3E1,4.2E1,1.6E1,1.3E1,5.4E1,1.2E1,1.1E1,2.8E1,1.4E1,1.1E1,5E0,9E0,4E0,1.3E1,4.1E1,6E0,6E0,1.3E1,1.5E1,9E0,5E0,6E0,5E0],"tree_param":{"num_deleted":"0","num_feature":"9","num_nodes":"27","size_leaf_vector":"1"}},{"base_weights":[8.899186E-4,-7.3994115E-2,6.389124E-2,-8.780345E-2,8.617925E-3,-6.4092684E-3,7.8028485E-2,-1.8822236E-1,-6.200254E-2,1.678294E-1,6.05188E-2,-2.1900937E-3,-9.830362E-3,-4.317295E-3,3.465411E-3,4.743013E-3,1.0319937E-2,-7.4228336E-4,5.3417417E-3],"categories":[],"categories_nodes":[],"categories_segments":[],"categories_sizes":[],"default_left":[0,0,0,0,0,0,0,0,0,0,0,0,0,0,0,0,0,0,0],"id":28,"left_children":[1,3,5,7,-1,-1,9,11,13,15,17,-1,-1,-1,-1,-1,-1,-1,-1],"loss_changes":[7.1239644E-1,2.4986944E-1,2.3266774E-1,1.5932906E-1,0E0,0E0,1.1091688E-1,7.1305633E-3,1.785979E-1,1.4193416E-2,2.3196453E-1,0E0,0E0,0E0,0E0,0E0,0E0,0E0,0E0],"parents":[2147483647,0,0,1,1,2,2,3,3,6,6,7,7,8,8,9,9,10,10],"right_children":[2,4,6,8,-1,-1,10,12,14,16,18,-1,-1,-1,-1,-1,-1,-1,-1],"split_conditions":[5.2E1,9E0,2.5E-1,1E1,8.617925E-3,-6.4092684E-3,7.6E-1,1E0,1.88E2,9E1,1.1E2,-2.1900937E-3,-9.830362E-3,-4.317295E-3,3.465411E-3,4.743013E-3,1.0319937E-2,-7.4228336E-4,5.3417417E-3],"split_indices":[7,0,5,7,0,0,5,0,4,7,3,0,0,0,0,0,0,0,0],"split_type":[0,0,0,0,0,0,0,0,0,0,0,0,0,0,0,0,0,0,0],"sum_hessian":[1.49E2,6.8E1,8.1E1,6.5E1,3E0,5E0,7.6E1,1.2E1,5.3E1,1.1E1,6.5E1,1E0,1.1E1,4.5E1,8E0,5E0,6E0,2.5E1,4E1],"tree_param":{"num_deleted":"0","num_feature":"9","num_nodes":"19","size_leaf_vector":"1"}},{"base_weights":[4.8008506E-4,-2.3148099E-2,7.694815E-2,-1.0336402E-2,-5.072635E-3,4.6860605E-2,6.91164E-3,-6.9941925E-3,5.1496513E-3,1.6305517E-2,6.5915743E-3,4.2027365E-3,-4.3901798E-4,2.776568E-4,1.6541999E-3],"categories":[],"categories_nodes":[],"categories_segments":[],"categories_sizes":[],"default_left":[0,0,0,0,0,0,0,0,0,0,0,0,0,0,0],"id":29,"left_children":[1,3,5,-1,7,9,-1,-1,11,13,-1,-1,-1,-1,-1],"loss_changes":[2.9086947E-1,4.0710133E-1,6.359072E-2,0E0,1.5644325E-1,6.795032E-2,0E0,0E0,1.17247775E-1,3.604861E-3,0E0,0E0,0E0,0E0,0E0],"parents":[2147483647,0,0,1,1,2,2,4,4,5,5,8,8,9,9],"right_children":[2,4,6,-1,8,10,-1,-1,12,14,-1,-1,-1,-1,-1],"split_conditions":[1.6E2,3.6E1,6.54E1,-1.0336402E-2,2.5E-1,2.2E2,6.91164E-3,-6.9941925E-3,7.6E-1,3E0,6.5915743E-3,4.2027365E-3,-4.3901798E-4,2.776568E-4,1.6541999E-3],"split_indices":[4,3,2,0,5,4,0,0,5,0,0,0,0,0,0],"split_type":[0,0,0,0,0,0,0,0,0,0,0,0,0,0,0],"sum_hessian":[1.59E2,1.22E2,3.7E1,1E1,1.12E2,2.6E1,1.1E1,7E0,1.05E2,2E1,6E0,1.5E1,9E1,1.3E1,7E0],"tree_param":{"num_deleted":"0","num_feature":"9","num_nodes":"15","size_leaf_vector":"1"}},{"base_weights":[3.1133208E-3,-8.050858E-2,4.3220703E-2,-1.2865084E-1,-2.258653E-2,-6.271043E-3,9.9163964E-2,-3.1343266E-2,-1.6285135E-1,-5.376202E-3,9.858463E-2,-1.7927048E-1,3.231263E-2,1.5642876E-2,1.2424978E-1,-4.515381E-3,4.85166E-3,-1.0794232E-2,-3.9969156E-3,6.6138054E-3,1.921897E-3,-1.0168604E-2,9.4109325E-4,-5.989454E-3,2.7160037E-3,-2.4361105E-3,5.774922E-3,7.1217427E-3,4.2749657E-3],"categories":[],"categories_nodes":[],"categories_segments":[],"categories_sizes":[],"default_left":[0,0,0,0,0,0,0,0,0,0,0,0,0,0,0,0,0,0,0,0,0,0,0,0,0,0,0,0,0],"id":30,"left_children":[1,3,5,7,9,11,13,15,17,-1,19,21,23,25,27,-1,-1,-1,-1,-1,-1,-1,-1,-1,-1,-1,-1,-1,-1],"loss_changes":[4.9649638E-1,1.309421E-1,2.7749485E-1,8.1422955E-2,2.4731566E-1,3.662402E-1,9.653053E-2,6.931993E-2,6.628841E-2,0E0,1.5179887E-2,5.157122E-2,1.571386E-1,8.275388E-2,1.3190389E-2,0E0,0E0,0E0,0E0,0E0,0E0,0E0,0E0,0E0,0E0,0E0,0E0,0E0,0E0],"parents":[2147483647,0,0,1,1,2,2,3,3,4,4,5,5,6,6,7,7,8,8,10,10,11,11,12,12,13,13,14,14],"right_children":[2,4,6,8,10,12,14,16,18,-1,20,22,24,26,28,-1,-1,-1,-1,-1,-1,-1,-1,-1,-1,-1,-1,-1,-1],"split_conditions":[3.8E1,6E0,1.2E2,2E0,6.86E0,5.86E0,5E1,1E2,1.6E2,-5.376202E-3,1.4E2,1.8E2,2.5E-1,1.88E2,4E0,-4.515381E-3,4.85166E-3,-1.0794232E-2,-3.9969156E-3,6.6138054E-3,1.921897E-3,-1.0168604E-2,9.4109325E-4,-5.989454E-3,2.7160037E-3,-2.4361105E-3,5.774922E-3,7.1217427E-3,4.2749657E-3],"split_indices":[7,0,4,0,1,1,7,4,4,0,4,7,5,4,0,0,0,0,0,0,0,0,0,0,0,0,0,0,0],"split_type":[0,0,0,0,0,0,0,0,0,0,0,0,0,0,0,0,0,0,0,0,0,0,0,0,0,0,0,0,0],"sum_hessian":[1.46E2,4.7E1,9.9E1,2.5E1,2.2E1,5.3E1,4.6E1,7E0,1.8E1,1.3E1,9E0,9E0,4.4E1,1.1E1,3.5E1,5E0,2E0,1E1,8E0,5E0,4E0,8E0,1E0,5E0,3.9E1,7E0,4E0,2.2E1,1.3E1],"tree_param":{"num_deleted":"0","num_feature":"9","num_nodes":"29","size_leaf_vector":"1"}},{"base_weights":[-5.2966927E-3,-7.166832E-2,5.3854834E-2,-8.3928905E-2,8.04045E-3,-5.60123E-3,6.608109E-2,1.1463248E-2,-1.0190817E-1,1.5435098E-1,4.9030792E-2,-4.922019E-3,3.9360053E-3,-5.7408307E-3,1.5626246E-3,4.2571067E-3,9.5811365E-3,-2.7195457E-4,4.4654813E-3],"categories":[],"categories_nodes":[],"categories_segments":[],"categories_sizes":[],"default_left":[0,0,0,0,0,0,0,0,0,0,0,0,0,0,0,0,0,0,0],"id":31,"left_children":[1,3,5,7,-1,-1,9,11,13,15,17,-1,-1,-1,-1,-1,-1,-1,-1],"loss_changes":[6.084611E-1,2.2156894E-1,1.7370567E-1,1.212239E-1,0E0,0E0,1.0831919E-1,9.645052E-2,1.0500324E-1,1.4639229E-2,1.4528866E-1,0E0,0E0,0E0,0E0,0E0,0E0,0E0,0E0],"parents":[2147483647,0,0,1,1,2,2,3,3,6,6,7,7,8,8,9,9,10,10],"right_children":[2,4,6,8,-1,-1,10,12,14,16,18,-1,-1,-1,-1,-1,-1,-1,-1],"split_conditions":[5.2E1,9E0,2.5E-1,2E0,8.04045E-3,-5.60123E-3,7.6E-1,8E1,2.2E2,9E1,1.1E2,-4.922019E-3,3.9360053E-3,-5.7408307E-3,1.5626246E-3,4.2571067E-3,9.5811365E-3,-2.7195457E-4,4.4654813E-3],"split_indices":[7,0,5,0,0,0,5,4,4,7,3,0,0,0,0,0,0,0,0],"split_type":[0,0,0,0,0,0,0,0,0,0,0,0,0,0,0,0,0,0,0],"sum_hessian":[1.53E2,7.2E1,8.1E1,6.9E1,3E0,5E0,7.6E1,1.1E1,5.8E1,1.1E1,6.5E1,4E0,7E0,5.3E1,5E0,5E0,6E0,2.8E1,3.7E1],"tree_param":{"num_deleted":"0","num_feature":"9","num_nodes":"19","size_leaf_vector":"1"}},{"base_weights":[4.682155E-3,-1.5075046E-1,2.9754484E-2,-1.7335564E-1,-1.013485E-1,4.7708354E-3,1.0938708E-1,-2.1098815E-3,-9.03845E-3,-5.4839933E-3,-8.674391E-4,-8.79022E-3,2.0252889E-2,2.7380118E-2,6.3986774E-3,-7.622138E-4,4.765254E-3,-4.901332E-4,4.0112357E-3],"categories":[],"categories_nodes":[],"categories_segments":[],"categories_sizes":[],"default_left":[0,0,0,0,0,0,0,0,0,0,0,0,0,0,0,0,0,0,0],"id":32,"left_children":[1,3,5,7,9,11,13,-1,-1,-1,-1,-1,15,17,-1,-1,-1,-1,-1],"loss_changes":[5.890442E-1,5.8822036E-3,2.581148E-1,5.0121844E-3,4.3956786E-3,2.831281E-1,4.374683E-2,0E0,0E0,0E0,0E0,0E0,2.4921787E-1,1.454078E-2,0E0,0E0,0E0,0E0,0E0],"parents":[2147483647,0,0,1,1,2,2,3,3,4,4,5,5,6,6,12,12,13,13],"right_children":[2,4,6,8,10,12,14,-1,-1,-1,-1,-1,16,18,-1,-1,-1,-1,-1],"split_conditions":[1.5E1,8E0,1.6E2,1E0,2.2E2,3.6E1,3.9E1,-2.1098815E-3,-9.03845E-3,-5.4839933E-3,-8.674391E-4,-8.79022E-3,1E2,2.2E2,6.3986774E-3,-7.622138E-4,4.765254E-3,-4.901332E-4,4.0112357E-3],"split_indices":[7,7,4,0,4,3,7,0,0,0,0,0,7,4,0,0,0,0,0],"split_type":[0,0,0,0,0,0,0,0,0,0,0,0,0,0,0,0,0,0,0],"sum_hessian":[1.49E2,2E1,1.29E2,1.2E1,8E0,9.9E1,3E1,1E0,1.1E1,7E0,1E0,7E0,9.2E1,6E0,2.4E1,6.3E1,2.9E1,4E0,2E0],"tree_param":{"num_deleted":"0","num_feature":"9","num_nodes":"19","size_leaf_vector":"1"}},{"base_weights":[7.0582507E-3,-1.1125263E-1,3.2556936E-2,-7.977149E-3,-5.5015672E-2,-1.6773543E-3,7.909554E-2,-8.830473E-2,4.823956E-3,-3.193245E-2,5.7689726E-2,1.1933218E-1,1.6974278E-2,-5.07375E-3,1.4142067E-3,-2.4685436E-3,5.0635687E-3,-1.2382618E-4,4.3074465E-3,2.8379075E-3,7.2597503E-3,-3.195482E-3,4.485167E-3],"categories":[],"categories_nodes":[],"categories_segments":[],"categories_sizes":[],"default_left":[0,0,0,0,0,0,0,0,0,0,0,0,0,0,0,0,0,0,0,0,0,0,0],"id":33,"left_children":[1,3,5,-1,7,9,11,13,-1,15,17,19,21,-1,-1,-1,-1,-1,-1,-1,-1,-1,-1],"loss_changes":[4.591546E-1,6.4546615E-2,1.9928469E-1,0E0,7.912323E-2,1.3296163E-1,1.3045064E-1,2.1296218E-2,0E0,1.188202E-1,4.302045E-2,4.354593E-2,1.3515037E-1,0E0,0E0,0E0,0E0,0E0,0E0,0E0,0E0,0E0,0E0],"parents":[2147483647,0,0,1,1,2,2,4,4,5,5,6,6,7,7,9,9,10,10,11,11,12,12],"right_children":[2,4,6,-1,8,10,12,14,-1,16,18,20,22,-1,-1,-1,-1,-1,-1,-1,-1,-1,-1],"split_conditions":[3E1,1.2E1,6.86E0,-7.977149E-3,6.86E0,1E2,1.4E2,2.2E2,4.823956E-3,1.88E2,2.5E-1,8E1,1.6E2,-5.07375E-3,1.4142067E-3,-2.4685436E-3,5.0635687E-3,-1.2382618E-4,4.3074465E-3,2.8379075E-3,7.2597503E-3,-3.195482E-3,4.485167E-3],"split_indices":[7,7,1,0,1,7,4,4,0,4,8,4,4,0,0,0,0,0,0,0,0,0,0],"split_type":[0,0,0,0,0,0,0,0,0,0,0,0,0,0,0,0,0,0,0,0,0,0,0],"sum_hessian":[1.5E2,2.6E1,1.24E2,1.3E1,1.3E1,7.2E1,5.2E1,1.1E1,2E0,4.8E1,2.4E1,3.1E1,2.1E1,1E1,1E0,4.3E1,5E0,8E0,1.6E1,1E1,2.1E1,1E1,1.1E1],"tree_param":{"num_deleted":"0","num_feature":"9","num_nodes":"23","size_leaf_vector":"1"}},{"base_weights":[-7.931614E-3,-8.984794E-2,3.1910595E-2,-1.4914463E-1,-6.71978E-2,-5.9362366E-3,4.2452212E-2,-1.8577054E-3,-7.7690505E-3,-7.761794E-2,8.024311E-2,1.3099307E-1,2.7190018E-2,-5.966846E-3,-1.700477E-3,5.769843E-3,2.4839045E-4,3.624126E-3,8.957448E-3,-1.6250954E-3,3.7436534E-3],"categories":[],"categories_nodes":[],"categories_segments":[],"categories_sizes":[],"default_left":[0,0,0,0,0,0,0,0,0,0,0,0,0,0,0,0,0,0,0,0,0],"id":34,"left_children":[1,3,5,7,9,-1,11,-1,-1,13,15,17,19,-1,-1,-1,-1,-1,-1,-1,-1],"loss_changes":[4.9895367E-1,5.7131708E-2,1.685979E-1,3.3063293E-3,6.460978E-2,0E0,1.2751706E-1,0E0,0E0,6.1436146E-2,7.365357E-3,2.6461631E-2,2.415221E-1,0E0,0E0,0E0,0E0,0E0,0E0,0E0,0E0],"parents":[2147483647,0,0,1,1,2,2,3,3,4,4,6,6,9,9,10,10,11,11,12,12],"right_children":[2,4,6,8,10,-1,12,-1,-1,14,16,18,20,-1,-1,-1,-1,-1,-1,-1,-1],"split_conditions":[3.8E1,1E1,2.5E-1,1E0,7.5E0,-5.9362366E-3,7.6E-1,-1.8577054E-3,-7.7690505E-3,6E0,2E0,7.5E1,1.2E2,-5.966846E-3,-1.700477E-3,5.769843E-3,2.4839045E-4,3.624126E-3,8.957448E-3,-1.6250954E-3,3.7436534E-3],"split_indices":[7,7,5,0,1,0,5,0,0,0,0,7,4,0,0,0,0,0,0,0,0],"split_type":[0,0,0,0,0,0,0,0,0,0,0,0,0,0,0,0,0,0,0,0,0],"sum_hessian":[1.51E2,4.9E1,1.02E2,1.2E1,3.7E1,6E0,9.6E1,1E0,1.1E1,3.5E1,2E0,1.3E1,8.3E1,1.7E1,1.8E1,1E0,1E0,7E0,6E0,3.7E1,4.6E1],"tree_param":{"num_deleted":"0","num_feature":"9","num_nodes":"21","size_leaf_vector":"1"}},{"base_weights":[4.926708E-4,-7.494611E-2,4.170672E-2,-8.654813E-2,4.4407793E-3,1.1327555E-2,9.5197596E-2,-1.3221864E-1,-5.4291397E-2,-5.6607868E-3,2.4016041E-2,6.4825356E-2,6.1771595E-3,-1.811263E-3,-6.768217E-3,-1.7669824E-3,-8.669041E-3,6.4827823E-3,-4.6916507E-4,9.889646E-4,5.1694443E-3],"categories":[],"categories_nodes":[],"categories_segments":[],"categories_sizes":[],"default_left":[0,0,0,0,0,0,0,0,0,0,0,0,0,0,0,0,0,0,0,0,0],"id":35,"left_children":[1,3,5,7,-1,9,11,13,15,-1,17,19,-1,-1,-1,-1,-1,-1,-1,-1,-1],"loss_changes":[4.6638727E-1,1.0838497E-1,1.5654744E-1,6.6480756E-2,0E0,1.0227574E-1,2.2123456E-2,1.1356771E-3,6.383835E-2,0E0,2.058576E-1,3.0960605E-2,0E0,0E0,0E0,0E0,0E0,0E0,0E0,0E0,0E0],"parents":[2147483647,0,0,1,1,2,2,3,3,5,5,6,6,7,7,8,8,10,10,11,11],"right_children":[2,4,6,8,-1,10,12,14,16,-1,18,20,-1,-1,-1,-1,-1,-1,-1,-1,-1],"split_conditions":[3.8E1,9E0,6.86E0,1.3E1,4.4407793E-3,2.5E-1,7.5E1,1E0,9.593E1,-5.6607868E-3,7.6E-1,6E0,6.1771595E-3,-1.811263E-3,-6.768217E-3,-1.7669824E-3,-8.669041E-3,6.4827823E-3,-4.6916507E-4,9.889646E-4,5.1694443E-3],"split_indices":[7,0,1,7,0,5,7,0,2,0,5,0,0,0,0,0,0,0,0,0,0],"split_type":[0,0,0,0,0,0,0,0,0,0,0,0,0,0,0,0,0,0,0,0,0],"sum_hessian":[1.48E2,5.2E1,9.6E1,4.9E1,3E0,6.2E1,3.4E1,1.9E1,3E1,5E0,5.7E1,1.8E1,1.6E1,1E0,1.8E1,2.7E1,3E0,1.3E1,4.4E1,9E0,9E0],"tree_param":{"num_deleted":"0","num_feature":"9","num_nodes":"21","size_leaf_vector":"1"}},{"base_weights":[-2.7792675E-3,-1.0672463E-1,2.432229E-2,-7.4222474E-3,-7.256205E-2,3.2522613E-3,7.913351E-2,-3.987334E-3,-1.2841512E-3,-8.033088E-3,8.999201E-3,-4.8303615E-2,9.8376684E-2,-5.048179E-3,7.8379625E-4,-6.090437E-3,2.6242435E-5,8.672002E-3,4.152238E-3],"categories":[],"categories_nodes":[],"categories_segments":[],"categories_sizes":[],"default_left":[0,0,0,0,0,0,0,0,0,0,0,0,0,0,0,0,0,0,0],"id":36,"left_children":[1,3,5,-1,7,9,11,-1,-1,-1,13,15,17,-1,-1,-1,-1,-1,-1],"loss_changes":[4.2234084E-1,3.341207E-2,1.3717264E-1,0E0,4.351221E-3,8.340018E-2,8.56777E-2,0E0,0E0,0E0,6.398895E-2,1.8009644E-2,1.89718E-2,0E0,0E0,0E0,0E0,0E0,0E0],"parents":[2147483647,0,0,1,1,2,2,4,4,5,5,6,6,10,10,11,11,12,12],"right_children":[2,4,6,-1,8,10,12,-1,-1,-1,14,16,18,-1,-1,-1,-1,-1,-1],"split_conditions":[3E1,1E1,1.05E2,-7.4222474E-3,6.86E0,5.15E0,3.6E1,-3.987334E-3,-1.2841512E-3,-8.033088E-3,2.5E-1,1.37E2,7.6E-1,-5.048179E-3,7.8379625E-4,-6.090437E-3,2.6242435E-5,8.672002E-3,4.152238E-3],"split_indices":[7,7,7,0,1,1,3,0,0,0,5,7,5,0,0,0,0,0,0],"split_type":[0,0,0,0,0,0,0,0,0,0,0,0,0,0,0,0,0,0,0],"sum_hessian":[1.48E2,3E1,1.18E2,1.2E1,1.8E1,8.6E1,3.2E1,1.5E1,3E0,2E0,8.4E1,4E0,2.8E1,4E0,8E1,1E0,3E0,3E0,2.5E1],"tree_param":{"num_deleted":"0","num_feature":"9","num_nodes":"19","size_leaf_vector":"1"}},{"base_weights":[5.623698E-3,-1.17065035E-1,2.269946E-2,-1.3287032E-1,-7.324669E-2,-1.6291145E-2,8.074884E-2,-1.5804254E-3,-6.9601214E-3,-2.2826418E-4,-4.196636E-3,-4.6205666E-2,8.5990906E-2,4.959976E-2,1.2097033E-1,-8.17776E-3,-1.1374939E-3,2.6403088E-3,7.177966E-3,5.7854713E-3,-4.0559336E-3,2.832041E-3,6.827948E-3],"categories":[],"categories_nodes":[],"categories_segments":[],"categories_sizes":[],"default_left":[0,0,0,0,0,0,0,0,0,0,0,0,0,0,0,0,0,0,0,0,0,0,0],"id":37,"left_children":[1,3,5,7,9,11,13,-1,-1,-1,-1,15,17,19,21,-1,-1,-1,-1,-1,-1,-1,-1],"loss_changes":[3.0852786E-1,2.733782E-3,2.932916E-1,3.294468E-3,4.7543384E-3,2.426313E-1,5.914873E-2,0E0,0E0,0E0,0E0,1.6418324E-1,2.6806235E-2,2.772805E-1,1.432699E-2,0E0,0E0,0E0,0E0,0E0,0E0,0E0,0E0],"parents":[2147483647,0,0,1,1,2,2,3,3,4,4,5,5,6,6,11,11,12,12,13,13,14,14],"right_children":[2,4,6,8,10,12,14,-1,-1,-1,-1,16,18,20,22,-1,-1,-1,-1,-1,-1,-1,-1],"split_conditions":[1.5E1,8E0,6.86E0,1E0,3E0,1.6E2,6E0,-1.5804254E-3,-6.9601214E-3,-2.2826418E-4,-4.196636E-3,3E0,2.2E2,5E0,8E1,-8.17776E-3,-1.1374939E-3,2.6403088E-3,7.177966E-3,5.7854713E-3,-4.0559336E-3,2.832041E-3,6.827948E-3],"split_indices":[7,7,1,0,0,4,0,0,0,0,0,0,4,0,4,0,0,0,0,0,0,0,0],"split_type":[0,0,0,0,0,0,0,0,0,0,0,0,0,0,0,0,0,0,0,0,0,0,0],"sum_hessian":[1.45E2,1.7E1,1.28E2,1.1E1,6E0,7.7E1,5.1E1,1E0,1E1,1E0,5E0,6E1,1.7E1,3E1,2.1E1,9E0,5.1E1,1.2E1,5E0,2E1,1E1,5E0,1.6E1],"tree_param":{"num_deleted":"0","num_feature":"9","num_nodes":"23","size_leaf_vector":"1"}},{"base_weights":[1.6444684E-3,-1.0464544E-1,2.648933E-2,-5.7037994E-3,-1.158424E-1,5.3280075E-3,1.0231601E-1,-1.540915E-3,1.2940466E-2,-7.686659E-3,-9.3791425E-2,-1.4082861E-1,1.9884469E-2,8.035943E-2,1.2306511E-1,8.543879E-5,8.850962E-4,-4.9253744E-3,-2.2255779E-4,-9.448038E-3,-1.6711608E-3,5.846046E-3,9.916189E-5,-1.8086128E-3,5.501692E-3,6.922938E-3,2.883155E-3],"categories":[],"categories_nodes":[],"categories_segments":[],"categories_sizes":[],"default_left":[0,0,0,0,0,0,0,0,0,0,0,0,0,0,0,0,0,0,0,0,0,0,0,0,0,0,0],"id":38,"left_children":[1,3,5,7,9,11,13,-1,15,-1,17,19,21,23,25,-1,-1,-1,-1,-1,-1,-1,-1,-1,-1,-1,-1],"loss_changes":[4.041672E-1,3.1466812E-2,1.9842437E-1,2.2717689E-3,7.304877E-3,2.1129757E-1,2.4111867E-3,0E0,1.3018906E-4,0E0,7.5668693E-3,4.0211186E-2,1.5610461E-1,5.9308328E-2,4.0973574E-3,0E0,0E0,0E0,0E0,0E0,0E0,0E0,0E0,0E0,0E0,0E0,0E0],"parents":[2147483647,0,0,1,1,2,2,3,3,4,4,5,5,6,6,8,8,10,10,11,11,12,12,13,13,14,14],"right_children":[2,4,6,8,10,12,14,-1,16,-1,18,20,22,24,26,-1,-1,-1,-1,-1,-1,-1,-1,-1,-1,-1,-1],"split_conditions":[3E1,1E0,1.6E2,3E0,5E0,3.6E1,7.5E1,-1.540915E-3,1E2,-7.686659E-3,2.2E2,1.2E2,2E0,1.88E2,7.5E0,8.543879E-5,8.850962E-4,-4.9253744E-3,-2.2255779E-4,-9.448038E-3,-1.6711608E-3,5.846046E-3,9.916189E-5,-1.8086128E-3,5.501692E-3,6.922938E-3,2.883155E-3],"split_indices":[7,0,4,7,7,3,7,0,4,0,4,4,0,4,1,0,0,0,0,0,0,0,0,0,0,0,0],"split_type":[0,0,0,0,0,0,0,0,0,0,0,0,0,0,0,0,0,0,0,0,0,0,0,0,0,0,0],"sum_hessian":[1.51E2,2.8E1,1.23E2,3E0,2.5E1,9.7E1,2.6E1,1E0,2E0,7E0,1.8E1,8E0,8.9E1,1.5E1,1.1E1,1E0,1E0,1.7E1,1E0,5E0,3E0,1.3E1,7.6E1,3E0,1.2E1,8E0,3E0],"tree_param":{"num_deleted":"0","num_feature":"9","num_nodes":"27","size_leaf_vector":"1"}},{"base_weights":[-6.0507766E-4,-1.12059474E-1,1.6340831E-2,-7.2833793E-3,-8.031578E-2,-6.854229E-2,3.5136666E-2,-4.3414077E-3,-2.1699369E-4,-4.741048E-3,-3.1254545E-2,1.4437798E-2,8.745661E-2,1.9423902E-3,-2.5574635E-3,-6.3050217E-3,1.5379695E-3,9.009368E-4,5.2393707E-3],"categories":[],"categories_nodes":[],"categories_segments":[],"categories_sizes":[],"default_left":[0,0,0,0,0,0,0,0,0,0,0,0,0,0,0,0,0,0,0],"id":39,"left_children":[1,3,5,-1,7,9,11,-1,-1,-1,13,15,17,-1,-1,-1,-1,-1,-1],"loss_changes":[2.719147E-1,8.570656E-3,2.0183946E-1,0E0,5.560577E-3,1.9573487E-2,1.10282555E-1,0E0,0E0,0E0,1.732837E-2,1.7591433E-1,3.301087E-2,0E0,0E0,0E0,0E0,0E0,0E0],"parents":[2147483647,0,0,1,1,2,2,4,4,5,5,6,6,10,10,11,11,12,12],"right_children":[2,4,6,-1,8,10,12,-1,-1,-1,14,16,18,-1,-1,-1,-1,-1,-1],"split_conditions":[1.5E1,5E0,9E1,-7.2833793E-3,2.2E2,7.5E1,1.6E2,-4.3414077E-3,-2.1699369E-4,-4.741048E-3,7E0,3.6E1,3.9E1,1.9423902E-3,-2.5574635E-3,-6.3050217E-3,1.5379695E-3,9.009368E-4,5.2393707E-3],"split_indices":[7,7,4,0,4,7,4,0,0,0,0,3,7,0,0,0,0,0,0],"split_type":[0,0,0,0,0,0,0,0,0,0,0,0,0,0,0,0,0,0,0],"sum_hessian":[1.42E2,1.8E1,1.24E2,7E0,1.1E1,2.2E1,1.02E2,1E1,1E0,1.2E1,1E1,7.4E1,2.8E1,2E0,8E0,7E0,6.7E1,6E0,2.2E1],"tree_param":{"num_deleted":"0","num_feature":"9","num_nodes":"19","size_leaf_vector":"1"}},{"base_weights":[-2.061075E-3,-6.557553E-2,2.971636E-2,-7.621969E-2,7.854831E-2,-5.2419635E-3,4.0734556E-2,9.071669E-3,-9.10029E-2,1.802536E-2,6.5029296E-3,1.2146946E-1,2.8716063E-2,-3.261758E-3,2.235657E-3,-5.978818E-3,-3.1721045E-3,5.1040235E-3,-3.7521215E-3,3.3783023E-3,8.205594E-3,5.1464313E-3,7.4588705E-4],"categories":[],"categories_nodes":[],"categories_segments":[],"categories_sizes":[],"default_left":[0,0,0,0,0,0,0,0,0,0,0,0,0,0,0,0,0,0,0,0,0,0,0],"id":40,"left_children":[1,3,5,7,9,-1,11,13,15,17,-1,19,21,-1,-1,-1,-1,-1,-1,-1,-1,-1,-1],"loss_changes":[3.087343E-1,8.4224895E-2,1.5549174E-1,6.1347783E-2,1.0125862E-2,0E0,8.869152E-2,2.4104105E-2,2.4701625E-2,3.1128835E-2,0E0,1.6494468E-2,8.448129E-2,0E0,0E0,0E0,0E0,0E0,0E0,0E0,0E0,0E0,0E0],"parents":[2147483647,0,0,1,1,2,2,3,3,4,4,6,6,7,7,8,8,9,9,11,11,12,12],"right_children":[2,4,6,8,10,-1,12,14,16,18,-1,20,22,-1,-1,-1,-1,-1,-1,-1,-1,-1,-1],"split_conditions":[3.8E1,9E0,2.5E-1,2E0,1.5E-1,-5.2419635E-3,7.6E-1,3E0,6E0,9E1,6.5029296E-3,9E1,2E0,-3.261758E-3,2.235657E-3,-5.978818E-3,-3.1721045E-3,5.1040235E-3,-3.7521215E-3,3.3783023E-3,8.205594E-3,5.1464313E-3,7.4588705E-4],"split_indices":[7,0,5,0,8,0,5,7,0,2,0,7,0,0,0,0,0,0,0,0,0,0,0],"split_type":[0,0,0,0,0,0,0,0,0,0,0,0,0,0,0,0,0,0,0,0,0,0,0],"sum_hessian":[1.51E2,5E1,1.01E2,4.7E1,3E0,7E0,9.4E1,7E0,4E1,2E0,1E0,1.1E1,8.3E1,2E0,5E0,1.8E1,2.2E1,1E0,1E0,6E0,5E0,1.2E1,7.1E1],"tree_param":{"num_deleted":"0","num_feature":"9","num_nodes":"23","size_leaf_vector":"1"}},{"base_weights":[4.8226034E-3,-1.0458082E-1,1.9374004E-2,-1.2387633E-3,-1.07817896E-1,-1.0913509E-2,5.120358E-2,-2.0576639E-3,-5.6981477E-3,-1.5020308E-1,1.2099757E-2,8.18168E-2,1.174048E-2,-8.454955E-3,4.965231E-4,-5.154171E-3,1.4469931E-3,-7.2649657E-4,4.6967748E-3,-3.0724346E-3,4.988722E-3],"categories":[],"categories_nodes":[],"categories_segments":[],"categories_sizes":[],"default_left":[0,0,0,0,0,0,0,0,0,0,0,0,0,0,0,0,0,0,0,0,0],"id":41,"left_children":[1,3,5,-1,7,9,11,-1,-1,13,15,17,19,-1,-1,-1,-1,-1,-1,-1,-1],"loss_changes":[2.4400604E-1,1.9788444E-3,1.3070403E-1,0E0,2.274245E-3,2.2620298E-1,7.877354E-2,0E0,0E0,3.1938076E-2,1.21304706E-1,4.4565946E-2,1.9942498E-1,0E0,0E0,0E0,0E0,0E0,0E0,0E0,0E0],"parents":[2147483647,0,0,1,1,2,2,4,4,5,5,6,6,9,9,10,10,11,11,12,12],"right_children":[2,4,6,-1,8,10,12,-1,-1,14,16,18,20,-1,-1,-1,-1,-1,-1,-1,-1],"split_conditions":[1.5E1,1E0,1.2E2,-1.2387633E-3,5.86E0,5.86E0,5E0,-2.0576639E-3,-5.6981477E-3,1.8E2,2.5E-1,3E1,6E0,-8.454955E-3,4.965231E-4,-5.154171E-3,1.4469931E-3,-7.2649657E-4,4.6967748E-3,-3.0724346E-3,4.988722E-3],"split_indices":[7,0,4,0,1,1,0,0,0,7,5,7,0,0,0,0,0,0,0,0,0],"split_type":[0,0,0,0,0,0,0,0,0,0,0,0,0,0,0,0,0,0,0,0,0],"sum_hessian":[1.51E2,1.7E1,1.34E2,1E0,1.6E1,6.9E1,6.5E1,2E0,1.4E1,9E0,6E1,3.6E1,2.9E1,8E0,1E0,7E0,5.3E1,4E0,3.2E1,1.6E1,1.3E1],"tree_param":{"num_deleted":"0","num_feature":"9","num_nodes":"21","size_leaf_vector":"1"}},{"base_weights":[4.4421256E-3,-4.1090917E-2,4.8734803E-2,-4.675246E-2,5.51851E-3,2.5842505E-2,8.3737984E-2,-7.932471E-2,-3.2072805E-2,9.0311825E-2,1.8440679E-3,6.515731E-2,5.9926603E-3,-2.7195902E-3,-4.778474E-3,-2.862944E-3,1.6935047E-3,-3.5057222E-3,6.2927143E-3,-3.8098826E-4,5.4243077E-3,4.7776727E-3,2.3893332E-3],"categories":[],"categories_nodes":[],"categories_segments":[],"categories_sizes":[],"default_left":[0,0,0,0,0,0,0,0,0,0,0,0,0,0,0,0,0,0,0,0,0,0,0],"id":42,"left_children":[1,3,5,7,-1,9,11,13,15,17,19,21,-1,-1,-1,-1,-1,-1,-1,-1,-1,-1,-1],"loss_changes":[3.065364E-1,6.9472805E-2,5.9536338E-2,3.2360733E-2,0E0,7.4097276E-2,1.2322068E-2,3.7124604E-3,8.830318E-2,8.294946E-2,3.7159387E-2,7.049829E-3,0E0,0E0,0E0,0E0,0E0,0E0,0E0,0E0,0E0,0E0,0E0],"parents":[2147483647,0,0,1,1,2,2,3,3,5,5,6,6,7,7,8,8,9,9,10,10,11,11],"right_children":[2,4,6,8,-1,10,12,14,16,18,20,22,-1,-1,-1,-1,-1,-1,-1,-1,-1,-1,-1],"split_conditions":[5.2E1,9E0,6.86E0,9.5E-1,5.51851E-3,7.6E-1,1.37E2,7.6E-1,6E0,2.5E-1,6E-1,1E0,5.9926603E-3,-2.7195902E-3,-4.778474E-3,-2.862944E-3,1.6935047E-3,-3.5057222E-3,6.2927143E-3,-3.8098826E-4,5.4243077E-3,4.7776727E-3,2.3893332E-3],"split_indices":[7,0,1,5,0,5,7,5,0,5,8,0,0,0,0,0,0,0,0,0,0,0,0],"split_type":[0,0,0,0,0,0,0,0,0,0,0,0,0,0,0,0,0,0,0,0,0,0,0],"sum_hessian":[1.5E2,7.4E1,7.6E1,7.2E1,2E0,4.7E1,2.9E1,2.1E1,5.1E1,1.2E1,3.5E1,2.1E1,8E0,1E1,1.1E1,3.7E1,1.4E1,2E0,1E1,3.3E1,2E0,6E0,1.5E1],"tree_param":{"num_deleted":"0","num_feature":"9","num_nodes":"23","size_leaf_vector":"1"}},{"base_weights":[-4.218146E-3,-3.270262E-2,4.7248323E-2,-1.0129729E-1,-1.4648549E-2,2.5070058E-2,8.037113E-2,-1.1640705E-1,-3.2985245E-3,-2.8279288E-2,8.6937815E-2,-2.2831114E-2,6.359492E-2,5.6106145E-3,5.870976E-2,-1.136221E-3,-6.14289E-3,2.7776588E-4,-2.452282E-3,5.0288453E-3,2.2372366E-3,3.4453662E-3,-1.7152906E-3,1.3700397E-3,3.9704293E-3,2.0729671E-3,4.073432E-3],"categories":[],"categories_nodes":[],"categories_segments":[],"categories_sizes":[],"default_left":[0,0,0,0,0,0,0,0,0,0,0,0,0,0,0,0,0,0,0,0,0,0,0,0,0,0,0],"id":43,"left_children":[1,3,5,7,9,11,13,15,-1,17,19,21,23,-1,25,-1,-1,-1,-1,-1,-1,-1,-1,-1,-1,-1,-1],"loss_changes":[2.0971648E-1,1.12450145E-1,3.545001E-2,2.462387E-3,1.04926124E-1,6.05043E-2,7.2065145E-3,4.460007E-3,0E0,4.6645463E-2,6.789863E-4,1.8153982E-2,8.126661E-3,0E0,2.1187663E-3,0E0,0E0,0E0,0E0,0E0,0E0,0E0,0E0,0E0,0E0,0E0,0E0],"parents":[2147483647,0,0,1,1,2,2,3,3,4,4,5,5,6,6,7,7,9,9,10,10,11,11,12,12,14,14],"right_children":[2,4,6,8,10,12,14,16,-1,18,20,22,24,-1,26,-1,-1,-1,-1,-1,-1,-1,-1,-1,-1,-1,-1],"split_conditions":[7.5E1,1.5E1,6.86E0,8E0,7.5E0,2.5E-1,1E0,1E0,-3.2985245E-3,3E0,5E1,8E1,1.05E2,5.6106145E-3,1.37E2,-1.136221E-3,-6.14289E-3,2.7776588E-4,-2.452282E-3,5.0288453E-3,2.2372366E-3,3.4453662E-3,-1.7152906E-3,1.3700397E-3,3.9704293E-3,2.0729671E-3,4.073432E-3],"split_indices":[7,7,1,7,1,8,0,0,0,0,7,7,7,0,7,0,0,0,0,0,0,0,0,0,0,0,0],"split_type":[0,0,0,0,0,0,0,0,0,0,0,0,0,0,0,0,0,0,0,0,0,0,0,0,0,0,0],"sum_hessian":[1.41E2,9.1E1,5E1,1.8E1,7.3E1,3.1E1,1.9E1,1.1E1,7E0,6.5E1,8E0,1.4E1,1.7E1,6E0,1.3E1,1E0,1E1,2.5E1,4E1,5E0,3E0,1E0,1.3E1,6E0,1.1E1,9E0,4E0],"tree_param":{"num_deleted":"0","num_feature":"9","num_nodes":"27","size_leaf_vector":"1"}},{"base_weights":[-1.0821732E-3,-8.0800004E-2,1.8856613E-2,-2.3897812E-3,-8.975542E-2,-8.18466E-3,5.005557E-2,-1.1078157E-3,1.1584501E-2,-5.883314E-3,-6.8057545E-2,-1.4637871E-1,1.7558398E-2,1.0701458E-1,3.7823252E-2,1.7416478E-5,8.514211E-4,-3.6334794E-3,1.4337972E-4,-8.219789E-3,3.9437413E-4,-1.6072927E-3,2.7736356E-3,5.635369E-3,1.5368045E-3,2.6592638E-4,3.504837E-3],"categories":[],"categories_nodes":[],"categories_segments":[],"categories_sizes":[],"default_left":[0,0,0,0,0,0,0,0,0,0,0,0,0,0,0,0,0,0,0,0,0,0,0,0,0,0,0],"id":44,"left_children":[1,3,5,7,9,11,13,-1,15,-1,17,19,21,23,25,-1,-1,-1,-1,-1,-1,-1,-1,-1,-1,-1,-1],"loss_changes":[2.3040828E-1,2.0149201E-2,9.82742E-2,1.3615622E-3,7.7376813E-3,2.2669502E-1,3.357637E-2,0E0,1.7757501E-4,0E0,5.769253E-3,2.9090926E-2,1.0354636E-1,4.4395775E-4,4.7883064E-2,0E0,0E0,0E0,0E0,0E0,0E0,0E0,0E0,0E0,0E0,0E0,0E0],"parents":[2147483647,0,0,1,1,2,2,3,3,4,4,5,5,6,6,8,8,10,10,11,11,12,12,13,13,14,14],"right_children":[2,4,6,8,10,12,14,-1,16,-1,18,20,22,24,26,-1,-1,-1,-1,-1,-1,-1,-1,-1,-1,-1,-1],"split_conditions":[3E1,1E0,1.2E2,3E0,7E0,5.86E0,2E0,-1.1078157E-3,1E2,-5.883314E-3,2.2E2,1.8E2,9E1,2E2,1.6E2,1.7416478E-5,8.514211E-4,-3.6334794E-3,1.4337972E-4,-8.219789E-3,3.9437413E-4,-1.6072927E-3,2.7736356E-3,5.635369E-3,1.5368045E-3,2.6592638E-4,3.504837E-3],"split_indices":[7,0,4,7,7,1,0,0,4,0,4,7,4,4,4,0,0,0,0,0,0,0,0,0,0,0,0],"split_type":[0,0,0,0,0,0,0,0,0,0,0,0,0,0,0,0,0,0,0,0,0,0,0,0,0,0,0],"sum_hessian":[1.43E2,2.8E1,1.15E2,3E0,2.5E1,6.2E1,5.3E1,1E0,2E0,9E0,1.6E1,9E0,5.3E1,8E0,4.5E1,1E0,1E0,1.5E1,1E0,8E0,1E0,2.3E1,3E1,7E0,1E0,2.3E1,2.2E1],"tree_param":{"num_deleted":"0","num_feature":"9","num_nodes":"27","size_leaf_vector":"1"}},{"base_weights":[6.388015E-3,-3.8809404E-2,3.1928908E-2,-4.6941128E-2,6.847364E-2,-4.5701503E-3,4.3431636E-2,-7.0488597E-3,-7.064153E-2,1.5106609E-3,4.5813727E-3,1.8027741E-2,7.029013E-2,-9.223117E-4,4.952596E-3,-7.6916367E-3,-2.1717015E-3,-5.868735E-3,2.124794E-3,1.1044873E-3,4.178561E-3],"categories":[],"categories_nodes":[],"categories_segments":[],"categories_sizes":[],"default_left":[0,0,0,0,0,0,0,0,0,0,0,0,0,0,0,0,0,0,0,0,0],"id":45,"left_children":[1,3,5,7,9,-1,11,13,15,-1,-1,17,19,-1,-1,-1,-1,-1,-1,-1,-1],"loss_changes":[1.6285269E-1,4.7706433E-2,1.3164857E-1,4.4884272E-2,7.7513605E-4,0E0,5.536461E-2,2.4803266E-2,6.1221167E-2,0E0,0E0,1.5076195E-1,2.376005E-2,0E0,0E0,0E0,0E0,0E0,0E0,0E0,0E0],"parents":[2147483647,0,0,1,1,2,2,3,3,4,4,6,6,7,7,8,8,11,11,12,12],"right_children":[2,4,6,8,10,-1,12,14,16,-1,-1,18,20,-1,-1,-1,-1,-1,-1,-1,-1],"split_conditions":[3.8E1,9E0,2.5E-1,5E0,7.5E0,-4.5701503E-3,1.2E2,7.5E0,6E0,1.5106609E-3,4.5813727E-3,5.86E0,5E1,-9.223117E-4,4.952596E-3,-7.6916367E-3,-2.1717015E-3,-5.868735E-3,2.124794E-3,1.1044873E-3,4.178561E-3],"split_indices":[7,0,5,0,1,0,4,1,0,0,0,1,7,0,0,0,0,0,0,0,0],"split_type":[0,0,0,0,0,0,0,0,0,0,0,0,0,0,0,0,0,0,0,0,0],"sum_hessian":[1.39E2,5E1,8.9E1,4.7E1,3E0,7E0,8.2E1,1.8E1,2.9E1,2E0,1E0,4.3E1,3.9E1,1.7E1,1E0,6E0,2.3E1,6E0,3.7E1,9E0,3E1],"tree_param":{"num_deleted":"0","num_feature":"9","num_nodes":"21","size_leaf_vector":"1"}},{"base_weights":[4.7100703E-3,-2.0984793E-2,3.7237734E-2,-6.217169E-3,-8.6313905E-3,1.5267101E-2,1.19321756E-1,-4.5877225E-3,3.7195217E-3,4.88446E-2,-6.753224E-2,8.243467E-3,6.455242E-2,3.418465E-3,-9.58549E-4,4.666605E-3,1.6193638E-3,-6.5804855E-3,1.6827228E-3,1.4634833E-3,3.993407E-3],"categories":[],"categories_nodes":[],"categories_segments":[],"categories_sizes":[],"default_left":[0,0,0,0,0,0,0,0,0,0,0,0,0,0,0,0,0,0,0,0,0],"id":46,"left_children":[1,3,5,-1,7,9,11,-1,13,15,17,-1,19,-1,-1,-1,-1,-1,-1,-1,-1],"loss_changes":[1.269863E-1,1.07457325E-1,1.1900866E-1,0E0,7.939301E-2,1.5342909E-1,2.428183E-2,0E0,1.0194158E-1,2.5530882E-2,1.0816983E-1,0E0,1.9853339E-3,0E0,0E0,0E0,0E0,0E0,0E0,0E0,0E0],"parents":[2147483647,0,0,1,1,2,2,4,4,5,5,6,6,8,8,9,9,10,10,12,12],"right_children":[2,4,6,-1,8,10,12,-1,14,16,18,-1,20,-1,-1,-1,-1,-1,-1,-1,-1],"split_conditions":[1.2E2,5.86E0,6E0,-6.217169E-3,2.5E-1,5E0,1.4E2,-4.5877225E-3,7.6E-1,2E0,1.6E2,8.243467E-3,8E0,3.418465E-3,-9.58549E-4,4.666605E-3,1.6193638E-3,-6.5804855E-3,1.6827228E-3,1.4634833E-3,3.993407E-3],"split_indices":[4,1,0,0,5,0,4,0,5,0,4,0,0,0,0,0,0,0,0,0,0],"split_type":[0,0,0,0,0,0,0,0,0,0,0,0,0,0,0,0,0,0,0,0,0],"sum_hessian":[1.5E2,8.4E1,6.6E1,8E0,7.6E1,5.3E1,1.3E1,9E0,6.7E1,3.8E1,1.5E1,6E0,7E0,1.7E1,5E1,9E0,2.9E1,9E0,6E0,3E0,4E0],"tree_param":{"num_deleted":"0","num_feature":"9","num_nodes":"21","size_leaf_vector":"1"}},{"base_weights":[1.0515522E-3,-3.627323E-2,4.091842E-2,-8.273601E-2,-1.6542567E-2,-3.506538E-3,4.837244E-2,-5.2393014E-3,-6.107628E-2,-2.812846E-2,5.362963E-3,1.0940083E-1,3.6174394E-2,-3.3075486E-3,1.2236908E-4,-1.8871749E-3,4.834392E-3,2.955835E-3,7.072575E-3,3.308534E-3,-6.826644E-4],"categories":[],"categories_nodes":[],"categories_segments":[],"categories_sizes":[],"default_left":[0,0,0,0,0,0,0,0,0,0,0,0,0,0,0,0,0,0,0,0,0],"id":47,"left_children":[1,3,5,7,9,-1,11,-1,13,15,-1,17,19,-1,-1,-1,-1,-1,-1,-1,-1],"loss_changes":[2.2468756E-1,7.013715E-2,6.381908E-2,4.584804E-3,8.3340906E-2,0E0,4.740797E-2,0E0,4.674986E-3,6.605522E-2,0E0,9.365886E-3,8.90875E-2,0E0,0E0,0E0,0E0,0E0,0E0,0E0,0E0],"parents":[2147483647,0,0,1,1,2,2,3,3,4,4,6,6,8,8,9,9,11,11,12,12],"right_children":[2,4,6,8,10,-1,12,-1,14,16,-1,18,20,-1,-1,-1,-1,-1,-1,-1,-1],"split_conditions":[5.2E1,1.5E1,2.5E-1,5E0,7.5E0,-3.506538E-3,7.6E-1,-5.2393014E-3,2.2E2,2.2E2,5.362963E-3,9E1,1.5E-1,-3.3075486E-3,1.2236908E-4,-1.8871749E-3,4.834392E-3,2.955835E-3,7.072575E-3,3.308534E-3,-6.826644E-4],"split_indices":[7,7,5,7,1,0,5,0,4,4,0,7,8,0,0,0,0,0,0,0,0],"split_type":[0,0,0,0,0,0,0,0,0,0,0,0,0,0,0,0,0,0,0,0,0],"sum_hessian":[1.49E2,7.7E1,7.2E1,2.2E1,5.5E1,4E0,6.8E1,9E0,1.3E1,5.1E1,4E0,1E1,5.8E1,1.2E1,1E0,4.8E1,3E0,5E0,5E0,3.6E1,2.2E1],"tree_param":{"num_deleted":"0","num_feature":"9","num_nodes":"21","size_leaf_vector":"1"}},{"base_weights":[1.850304E-3,-3.1428073E-2,4.672033E-2,-4.3930877E-2,3.5116937E-2,9.439053E-2,3.5945E-2,-1.1748586E-1,-3.1558167E-2,-2.601584E-2,6.048164E-3,-2.3187385E-3,1.1310454E-1,5.40857E-2,-1.8453075E-2,-7.11478E-4,-6.368886E-3,-2.245154E-3,1.4449809E-3,-4.1615046E-3,1.1105517E-4,1.9490382E-3,6.338144E-3,5.573027E-3,1.9268844E-3,-1.363538E-3,1.436454E-4],"categories":[],"categories_nodes":[],"categories_segments":[],"categories_sizes":[],"default_left":[0,0,0,0,0,0,0,0,0,0,0,0,0,0,0,0,0,0,0,0,0,0,0,0,0,0,0],"id":48,"left_children":[1,3,5,7,9,11,13,15,17,19,-1,-1,21,23,25,-1,-1,-1,-1,-1,-1,-1,-1,-1,-1,-1,-1],"loss_changes":[2.2096896E-1,7.226265E-2,2.8967842E-2,6.181772E-2,7.661931E-2,3.4222312E-2,5.3299464E-2,8.401424E-3,5.2126303E-2,1.4724865E-2,0E0,0E0,5.182758E-3,3.138715E-2,2.7109869E-3,0E0,0E0,0E0,0E0,0E0,0E0,0E0,0E0,0E0,0E0,0E0,0E0],"parents":[2147483647,0,0,1,1,2,2,3,3,4,4,5,5,6,6,7,7,8,8,9,9,12,12,13,13,14,14],"right_children":[2,4,6,8,10,12,14,16,18,20,-1,-1,22,24,26,-1,-1,-1,-1,-1,-1,-1,-1,-1,-1,-1,-1],"split_conditions":[7E1,1.88E2,7.6E-1,5.86E0,3.9E1,8E1,9E1,6E0,5.2E1,6E0,6.048164E-3,-2.3187385E-3,7.5E1,1E2,9.5E-1,-7.11478E-4,-6.368886E-3,-2.245154E-3,1.4449809E-3,-4.1615046E-3,1.1105517E-4,1.9490382E-3,6.338144E-3,5.573027E-3,1.9268844E-3,-1.363538E-3,1.436454E-4],"split_indices":[7,4,5,1,7,4,2,7,7,7,0,0,7,4,5,0,0,0,0,0,0,0,0,0,0,0,0],"split_type":[0,0,0,0,0,0,0,0,0,0,0,0,0,0,0,0,0,0,0,0,0,0,0,0,0,0,0],"sum_hessian":[1.46E2,8.4E1,6.2E1,7.1E1,1.3E1,1E1,5.2E1,9E0,6.2E1,8E0,5E0,1E0,9E0,3.9E1,1.3E1,1E0,8E0,5.1E1,1.1E1,2E0,6E0,2E0,7E0,7E0,3.2E1,9E0,4E0],"tree_param":{"num_deleted":"0","num_feature":"9","num_nodes":"27","size_leaf_vector":"1"}},{"base_weights":[-4.607152E-3,-8.459204E-2,7.276587E-3,-5.248579E-3,-3.112902E-3,-4.213318E-3,7.764724E-2,-2.272484E-2,4.3595556E-2,9.1062136E-2,1.6702301E-3,-5.968111E-3,-3.3734116E-4,6.2296103E-4,3.0397226E-3,1.854868E-3,5.846032E-3],"categories":[],"categories_nodes":[],"categories_segments":[],"categories_sizes":[],"default_left":[0,0,0,0,0,0,0,0,0,0,0,0,0,0,0,0,0],"id":49,"left_children":[1,3,5,-1,-1,7,9,11,13,15,-1,-1,-1,-1,-1,-1,-1],"loss_changes":[1.4699554E-1,2.5678128E-3,1.09481685E-1,0E0,0E0,1.04537465E-1,8.234806E-3,1.3044095E-1,1.6914397E-2,1.5198834E-2,0E0,0E0,0E0,0E0,0E0,0E0,0E0],"parents":[2147483647,0,0,1,1,2,2,5,5,6,6,7,7,8,8,9,9],"right_children":[2,4,6,-1,-1,8,10,12,14,16,-1,-1,-1,-1,-1,-1,-1],"split_conditions":[1.3E1,5E0,1.88E2,-5.248579E-3,-3.112902E-3,1E2,2.4E2,5.86E0,5.86E0,3.9E1,1.6702301E-3,-5.968111E-3,-3.3734116E-4,6.2296103E-4,3.0397226E-3,1.854868E-3,5.846032E-3],"split_indices":[7,7,4,0,0,7,4,1,1,7,0,0,0,0,0,0,0],"split_type":[0,0,0,0,0,0,0,0,0,0,0,0,0,0,0,0,0],"sum_hessian":[1.53E2,1.9E1,1.34E2,8E0,1.1E1,1.16E2,1.8E1,8.4E1,3.2E1,1.3E1,5E0,1.1E1,7.3E1,1.2E1,2E1,5E0,8E0],"tree_param":{"num_deleted":"0","num_feature":"9","num_nodes":"17","size_leaf_vector":"1"}},{"base_weights":[-2.3584089E-3,-1.8444503E-2,4.1937307E-2,-3.146904E-2,5.4658506E-2,-4.1089527E-2,5.2303888E-2,-1.7372973E-2,-9.0020604E-2,-3.3952516E-2,8.453517E-2,-6.2467307E-3,2.8226033E-3,-3.236485E-3,6.109203E-2,-4.021363E-3,-2.247421E-4,-6.145261E-3,1.003023E-3,-3.3200446E-3,4.906684E-4,5.180749E-3,1.6642237E-3,6.631747E-3,2.3565907E-3],"categories":[],"categories_nodes":[],"categories_segments":[],"categories_sizes":[],"default_left":[0,0,0,0,0,0,0,0,0,0,0,0,0,0,0,0,0,0,0,0,0,0,0,0,0],"id":50,"left_children":[1,3,5,7,9,11,13,15,17,19,21,-1,-1,-1,23,-1,-1,-1,-1,-1,-1,-1,-1,-1,-1],"loss_changes":[1.0694273E-1,1.0645468E-1,3.6577314E-2,7.6018676E-2,4.7876008E-2,4.7944736E-2,4.098074E-2,6.2164135E-2,6.7625046E-2,7.752276E-3,9.263329E-3,0E0,0E0,0E0,2.7706355E-2,0E0,0E0,0E0,0E0,0E0,0E0,0E0,0E0,0E0,0E0],"parents":[2147483647,0,0,1,1,2,2,3,3,4,4,5,5,6,6,7,7,8,8,9,9,10,10,14,14],"right_children":[2,4,6,8,10,12,14,16,18,20,22,-1,-1,-1,24,-1,-1,-1,-1,-1,-1,-1,-1,-1,-1],"split_conditions":[1E2,1.88E2,3.6E1,3E0,3E1,1.2E2,2.5E-1,1.2E1,1.5E-1,1.2E1,6.54E1,-6.2467307E-3,2.8226033E-3,-3.236485E-3,7.6E-1,-4.021363E-3,-2.247421E-4,-6.145261E-3,1.003023E-3,-3.3200446E-3,4.906684E-4,5.180749E-3,1.6642237E-3,6.631747E-3,2.3565907E-3],"split_indices":[7,4,3,5,7,4,5,7,8,7,2,0,0,0,5,0,0,0,0,0,0,0,0,0,0],"split_type":[0,0,0,0,0,0,0,0,0,0,0,0,0,0,0,0,0,0,0,0,0,0,0,0,0],"sum_hessian":[1.48E2,1.09E2,3.9E1,9.3E1,1.6E1,4E0,3.5E1,7.6E1,1.7E1,4E0,1.2E1,2E0,2E0,2E0,3.3E1,1.2E1,6.4E1,1.3E1,4E0,2E0,2E0,8E0,4E0,4E0,2.9E1],"tree_param":{"num_deleted":"0","num_feature":"9","num_nodes":"25","size_leaf_vector":"1"}},{"base_weights":[2.6272738E-4,-3.398989E-2,3.631466E-2,-7.396591E-2,-1.943179E-2,-2.9920584E-3,4.108601E-2,-6.142378E-4,-7.643573E-2,6.2945117E-3,-5.3315975E-2,9.9790946E-2,3.0183785E-2,-5.0348616E-3,-2.781295E-3,-1.5586348E-3,5.899837E-3,-7.6764314E-3,-1.4058459E-3,2.4728454E-3,6.074399E-3,-1.5600313E-3,1.9839855E-3],"categories":[],"categories_nodes":[],"categories_segments":[],"categories_sizes":[],"default_left":[0,0,0,0,0,0,0,0,0,0,0,0,0,0,0,0,0,0,0,0,0,0,0],"id":51,"left_children":[1,3,5,7,9,-1,11,-1,13,15,17,19,21,-1,-1,-1,-1,-1,-1,-1,-1,-1,-1],"loss_changes":[1.9263968E-1,4.512071E-2,3.7326925E-2,2.2601783E-3,5.2638486E-2,0E0,4.370898E-2,0E0,4.496187E-3,1.5015922E-1,6.134011E-2,6.004676E-3,3.7960842E-2,0E0,0E0,0E0,0E0,0E0,0E0,0E0,0E0,0E0,0E0],"parents":[2147483647,0,0,1,1,2,2,3,3,4,4,6,6,8,8,9,9,10,10,11,11,12,12],"right_children":[2,4,6,8,10,-1,12,-1,14,16,18,20,22,-1,-1,-1,-1,-1,-1,-1,-1,-1,-1],"split_conditions":[5.2E1,1.5E1,2.5E-1,1E0,9E1,-2.9920584E-3,7.6E-1,-6.142378E-4,5E0,6E0,1.5E-1,7.5E1,9.5E-1,-5.0348616E-3,-2.781295E-3,-1.5586348E-3,5.899837E-3,-7.6764314E-3,-1.4058459E-3,2.4728454E-3,6.074399E-3,-1.5600313E-3,1.9839855E-3],"split_indices":[7,7,5,0,2,0,5,0,7,0,8,7,5,0,0,0,0,0,0,0,0,0,0],"split_type":[0,0,0,0,0,0,0,0,0,0,0,0,0,0,0,0,0,0,0,0,0,0,0],"sum_hessian":[1.54E2,7.9E1,7.5E1,2E1,5.9E1,3E0,7.2E1,1E0,1.9E1,3.4E1,2.5E1,1E1,6.2E1,7E0,1.2E1,2.6E1,8E0,4E0,2.1E1,4E0,6E0,8E0,5.4E1],"tree_param":{"num_deleted":"0","num_feature":"9","num_nodes":"23","size_leaf_vector":"1"}},{"base_weights":[-5.2321814E-3,6.159851E-2,-1.56336E-2,3.3472665E-3,1.6084496E-3,-4.0874835E-3,-1.0544615E-2,2.7991352E-3,-1.9859381E-2,-2.9686184E-3,-5.5512466E-4],"categories":[],"categories_nodes":[],"categories_segments":[],"categories_sizes":[],"default_left":[0,0,0,0,0,0,0,0,0,0,0],"id":52,"left_children":[1,3,5,-1,-1,-1,7,-1,9,-1,-1],"loss_changes":[1.0314771E-1,9.9352E-4,4.220533E-2,0E0,0E0,0E0,7.547414E-2,0E0,3.601796E-2,0E0,0E0],"parents":[2147483647,0,0,1,1,2,2,6,6,8,8],"right_children":[2,4,6,-1,-1,-1,8,-1,10,-1,-1],"split_conditions":[2E0,1E0,2.5E-1,3.3472665E-3,1.6084496E-3,-4.0874835E-3,7.6E-1,2.7991352E-3,9.5E-1,-2.9686184E-3,-5.5512466E-4],"split_indices":[0,0,5,0,0,0,5,0,5,0,0],"split_type":[0,0,0,0,0,0,0,0,0,0,0],"sum_hessian":[1.46E2,1.9E1,1.27E2,1.5E1,4E0,8E0,1.19E2,1.4E1,1.05E2,1.8E1,8.7E1],"tree_param":{"num_deleted":"0","num_feature":"9","num_nodes":"11","size_leaf_vector":"1"}},{"base_weights":[-3.7509985E-3,-1.5714005E-2,4.2630993E-2,-4.1814778E-2,2.2133231E-2,-5.118142E-2,6.344073E-2,-9.734159E-2,-1.1935251E-2,-2.2753065E-2,8.092766E-2,-3.4754227E-3,-9.684901E-3,7.816664E-2,2.8576156E-2,-5.294797E-3,-1.4047935E-3,-2.4616462E-3,1.3751491E-3,2.4455457E-3,-6.1190473E-3,-3.4600836E-3,4.594711E-3,-1.0871359E-3,3.607683E-4,2.6825748E-3,5.7084574E-3,-3.9761813E-4,1.7068133E-3],"categories":[],"categories_nodes":[],"categories_segments":[],"categories_sizes":[],"default_left":[0,0,0,0,0,0,0,0,0,0,0,0,0,0,0,0,0,0,0,0,0,0,0,0,0,0,0,0,0],"id":53,"left_children":[1,3,5,7,9,11,13,15,17,19,21,-1,23,25,27,-1,-1,-1,-1,-1,-1,-1,-1,-1,-1,-1,-1,-1,-1],"loss_changes":[8.1125766E-2,1.1551517E-1,6.181335E-2,1.13317125E-1,1.2851644E-1,3.8898662E-3,1.060161E-2,1.12412125E-2,6.901795E-2,2.0589818E-1,4.0933654E-2,0E0,7.682225E-4,8.878969E-3,2.0993873E-3,0E0,0E0,0E0,0E0,0E0,0E0,0E0,0E0,0E0,0E0,0E0,0E0,0E0,0E0],"parents":[2147483647,0,0,1,1,2,2,3,3,4,4,5,5,6,6,7,7,8,8,9,9,10,10,12,12,13,13,14,14],"right_children":[2,4,6,8,10,12,14,16,18,20,22,-1,24,26,28,-1,-1,-1,-1,-1,-1,-1,-1,-1,-1,-1,-1,-1,-1],"split_conditions":[1.6E2,6.86E0,1.2E1,2.5E-1,6E0,6E0,4E0,1.37E2,7E1,5E0,3E0,-3.4754227E-3,2.2E2,2.2E2,3.8E1,-5.294797E-3,-1.4047935E-3,-2.4616462E-3,1.3751491E-3,2.4455457E-3,-6.1190473E-3,-3.4600836E-3,4.594711E-3,-1.0871359E-3,3.607683E-4,2.6825748E-3,5.7084574E-3,-3.9761813E-4,1.7068133E-3],"split_indices":[4,1,7,8,0,7,0,4,7,0,7,0,4,4,7,0,0,0,0,0,0,0,0,0,0,0,0,0,0],"split_type":[0,0,0,0,0,0,0,0,0,0,0,0,0,0,0,0,0,0,0,0,0,0,0,0,0,0,0,0,0],"sum_hessian":[1.44E2,1.15E2,2.9E1,6.8E1,4.7E1,5E0,2.4E1,2.3E1,4.5E1,2.7E1,2E1,3E0,2E0,1.6E1,8E0,2E1,3E0,2.3E1,2.2E1,1.6E1,1.1E1,1E0,1.9E1,1E0,1E0,1.1E1,5E0,1E0,7E0],"tree_param":{"num_deleted":"0","num_feature":"9","num_nodes":"29","size_leaf_vector":"1"}},{"base_weights":[1.5286808E-3,-6.7828204E-3,4.8491783E-3,-6.53648E-2,2.549183E-3,-6.977785E-2,3.5174936E-4,-5.9676445E-3,6.256482E-2,-7.437028E-4,-3.6066268E-3,-3.562123E-3,3.2141755E-4,2.5193495E-4,3.55137E-3],"categories":[],"categories_nodes":[],"categories_segments":[],"categories_sizes":[],"default_left":[0,0,0,0,0,0,0,0,0,0,0,0,0,0,0],"id":54,"left_children":[1,3,-1,5,7,9,-1,11,13,-1,-1,-1,-1,-1,-1],"loss_changes":[1.1887044E-1,7.560947E-2,0E0,6.5614507E-3,6.1710503E-2,1.2541637E-3,0E0,8.622748E-2,6.944407E-3,0E0,0E0,0E0,0E0,0E0,0E0],"parents":[2147483647,0,0,1,1,3,3,4,4,5,5,7,7,8,8],"right_children":[2,4,-1,6,8,10,-1,12,14,-1,-1,-1,-1,-1,-1],"split_conditions":[1.37E2,1.5E1,4.8491783E-3,2.2E2,1.88E2,1E0,3.5174936E-4,5.86E0,3.9E1,-7.437028E-4,-3.6066268E-3,-3.562123E-3,3.2141755E-4,2.5193495E-4,3.55137E-3],"split_indices":[7,7,0,4,4,0,0,1,7,0,0,0,0,0,0],"split_type":[0,0,0,0,0,0,0,0,0,0,0,0,0,0,0],"sum_hessian":[1.48E2,1.37E2,1.1E1,1.8E1,1.19E2,1.7E1,1E0,1.05E2,1.4E1,1E0,1.6E1,1.6E1,8.9E1,2E0,1.2E1],"tree_param":{"num_deleted":"0","num_feature":"9","num_nodes":"15","size_leaf_vector":"1"}},{"base_weights":[-2.8639697E-3,-7.001561E-2,7.126227E-3,-4.2389333E-3,-2.209618E-3,-1.3413997E-2,4.5309618E-2,-2.3135623E-2,8.183341E-2,6.623478E-2,3.2430869E-3,-3.921817E-3,2.4798248E-4,2.035489E-3,4.9182815E-3,1.3106784E-3,3.8637712E-3,-4.0873825E-3,1.9192819E-3],"categories":[],"categories_nodes":[],"categories_segments":[],"categories_sizes":[],"default_left":[0,0,0,0,0,0,0,0,0,0,0,0,0,0,0,0,0,0,0],"id":55,"left_children":[1,3,5,-1,-1,7,9,11,13,15,17,-1,-1,-1,-1,-1,-1,-1,-1],"loss_changes":[9.844422E-2,3.4968033E-3,1.009976E-1,0E0,0E0,7.967388E-2,3.939639E-2,1.2002304E-1,1.4344715E-3,1.1230141E-2,5.0926592E-2,0E0,0E0,0E0,0E0,0E0,0E0,0E0,0E0],"parents":[2147483647,0,0,1,1,2,2,5,5,6,6,7,7,8,8,9,9,10,10],"right_children":[2,4,6,-1,-1,8,10,12,14,16,18,-1,-1,-1,-1,-1,-1,-1,-1],"split_conditions":[1.3E1,7E0,6.86E0,-4.2389333E-3,-2.209618E-3,1.88E2,1.5E2,2.5E-1,3.9E1,8E1,1.6E2,-3.921817E-3,2.4798248E-4,2.035489E-3,4.9182815E-3,1.3106784E-3,3.8637712E-3,-4.0873825E-3,1.9192819E-3],"split_indices":[7,7,1,0,0,4,4,8,7,4,4,0,0,0,0,0,0,0,0],"split_type":[0,0,0,0,0,0,0,0,0,0,0,0,0,0,0,0,0,0,0],"sum_hessian":[1.45E2,1.8E1,1.27E2,1E1,8E0,8.3E1,4.4E1,7.6E1,7E0,2.9E1,1.5E1,2.5E1,5.1E1,3E0,4E0,7E0,2.2E1,4E0,1.1E1],"tree_param":{"num_deleted":"0","num_feature":"9","num_nodes":"19","size_leaf_vector":"1"}},{"base_weights":[3.8072204E-3,-2.5523538E-2,3.264338E-2,-3.34386E-2,1.0551956E-1,1.53659545E-2,6.295852E-2,3.1391352E-2,-4.081353E-2,6.5031135E-3,7.9728663E-4,2.5740853E-2,-6.7502297E-3,2.148683E-2,4.3204543E-3,-2.4364346E-3,2.6433072E-3,-3.0998955E-3,-1.0523028E-3,-2.2733307E-3,1.5218946E-3,-2.0930767E-3,1.658841E-3],"categories":[],"categories_nodes":[],"categories_segments":[],"categories_sizes":[],"default_left":[0,0,0,0,0,0,0,0,0,0,0,0,0,0,0,0,0,0,0,0,0,0,0],"id":56,"left_children":[1,3,5,7,9,11,13,15,17,-1,-1,19,-1,21,-1,-1,-1,-1,-1,-1,-1,-1,-1],"loss_changes":[1.1247699E-1,7.198457E-2,3.4125023E-2,3.140252E-2,6.719593E-3,7.211861E-2,2.1484174E-2,1.4620025E-2,2.2564612E-2,0E0,0E0,1.5431406E-2,0E0,8.794249E-3,0E0,0E0,0E0,0E0,0E0,0E0,0E0,0E0,0E0],"parents":[2147483647,0,0,1,1,2,2,3,3,4,4,5,5,6,6,7,7,8,8,11,11,13,13],"right_children":[2,4,6,8,10,12,14,16,18,-1,-1,20,-1,22,-1,-1,-1,-1,-1,-1,-1,-1,-1],"split_conditions":[5.2E1,9E0,1.1E2,2E0,3.8E1,3E2,1.1E2,3E0,6E0,6.5031135E-3,7.9728663E-4,2.5E-1,-6.7502297E-3,2.5E-1,4.3204543E-3,-2.4364346E-3,2.6433072E-3,-3.0998955E-3,-1.0523028E-3,-2.2733307E-3,1.5218946E-3,-2.0930767E-3,1.658841E-3],"split_indices":[7,0,7,0,7,3,3,7,0,0,0,5,0,5,0,0,0,0,0,0,0,0,0],"split_type":[0,0,0,0,0,0,0,0,0,0,0,0,0,0,0,0,0,0,0,0,0,0,0],"sum_hessian":[1.31E2,6.5E1,6.6E1,6.2E1,3E0,4.3E1,2.3E1,6E0,5.6E1,2E0,1E0,4.1E1,2E0,9E0,1.4E1,1E0,5E0,2.6E1,3E1,2E0,3.9E1,1E0,8E0],"tree_param":{"num_deleted":"0","num_feature":"9","num_nodes":"23","size_leaf_vector":"1"}},{"base_weights":[2.8350493E-3,-1.7100936E-2,3.7672397E-2,-3.9359126E-2,9.988912E-3,8.483176E-2,2.8045176E-2,-3.2230783E-2,-5.1385364E-3,-1.17342435E-2,7.070544E-2,-2.0615102E-3,5.2871644E-3,5.3021046E-3,5.9620373E-2,-2.561525E-3,-3.8496804E-4,1.7454065E-3,-6.358338E-3,7.7513144E-3,1.2686676E-3,1.3858444E-3,-4.2620357E-3,3.2834243E-3,9.5053914E-4],"categories":[],"categories_nodes":[],"categories_segments":[],"categories_sizes":[],"default_left":[0,0,0,0,0,0,0,0,0,0,0,0,0,0,0,0,0,0,0,0,0,0,0,0,0],"id":57,"left_children":[1,3,5,7,9,11,13,15,-1,17,19,-1,-1,21,23,-1,-1,-1,-1,-1,-1,-1,-1,-1,-1],"loss_changes":[1.0690532E-1,5.948431E-2,2.3045652E-2,2.1096677E-2,6.018264E-2,2.8085135E-2,3.4153495E-2,2.2910047E-2,0E0,1.8749674E-1,4.1935746E-2,0E0,0E0,6.121804E-2,3.663823E-3,0E0,0E0,0E0,0E0,0E0,0E0,0E0,0E0,0E0,0E0],"parents":[2147483647,0,0,1,1,2,2,3,3,4,4,5,5,6,6,7,7,9,9,10,10,13,13,14,14],"right_children":[2,4,6,8,10,12,14,16,-1,18,20,-1,-1,22,24,-1,-1,-1,-1,-1,-1,-1,-1,-1,-1],"split_conditions":[7.5E1,1.2E2,7.6E-1,3E0,6E0,8E1,1.3E2,3.8E1,-5.1385364E-3,5E0,6.54E1,-2.0615102E-3,5.2871644E-3,3E0,7.56E1,-2.561525E-3,-3.8496804E-4,1.7454065E-3,-6.358338E-3,7.7513144E-3,1.2686676E-3,1.3858444E-3,-4.2620357E-3,3.2834243E-3,9.5053914E-4],"split_indices":[7,4,5,5,0,4,4,7,0,0,2,0,0,5,2,0,0,0,0,0,0,0,0,0,0],"split_type":[0,0,0,0,0,0,0,0,0,0,0,0,0,0,0,0,0,0,0,0,0,0,0,0,0],"sum_hessian":[1.52E2,9.7E1,5.5E1,5.3E1,4.4E1,8E0,4.7E1,4.9E1,4E0,3.3E1,1.1E1,1E0,7E0,2.8E1,1.9E1,2.7E1,2.2E1,2.4E1,9E0,3E0,8E0,2.3E1,5E0,1.6E1,3E0],"tree_param":{"num_deleted":"0","num_feature":"9","num_nodes":"25","size_leaf_vector":"1"}},{"base_weights":[4.652231E-3,-1.0711666E-2,4.039056E-2,-2.09722E-2,4.3184333E-2,-2.6661227E-3,4.6409268E-2,-8.298603E-2,-1.23085445E-2,-3.734474E-2,6.4640634E-2,5.6572836E-3,3.5851177E-2,1.5564323E-4,-4.6449224E-3,-2.6527215E-3,1.3659665E-4,-3.2858418E-3,-2.9908816E-4,3.829046E-3,9.3148876E-4,8.6735125E-4,3.8164535E-3],"categories":[],"categories_nodes":[],"categories_segments":[],"categories_sizes":[],"default_left":[0,0,0,0,0,0,0,0,0,0,0,0,0,0,0,0,0,0,0,0,0,0,0],"id":58,"left_children":[1,3,5,7,9,-1,11,13,15,17,19,-1,21,-1,-1,-1,-1,-1,-1,-1,-1,-1,-1],"loss_changes":[7.675476E-2,5.5099837E-2,2.616398E-2,4.357168E-2,3.0059688E-2,0E0,2.4127953E-2,8.823656E-3,4.5494925E-2,3.1662304E-3,5.715288E-3,0E0,2.564025E-2,0E0,0E0,0E0,0E0,0E0,0E0,0E0,0E0,0E0,0E0],"parents":[2147483647,0,0,1,1,2,2,3,3,4,4,6,6,7,7,8,8,9,9,10,10,12,12],"right_children":[2,4,6,8,10,-1,12,14,16,18,20,-1,22,-1,-1,-1,-1,-1,-1,-1,-1,-1,-1],"split_conditions":[9E1,1.88E2,2.5E-1,5.86E0,1.2E1,-2.6661227E-3,7.6E-1,6E0,9E1,5E0,2.4E2,5.6572836E-3,1.6E2,1.5564323E-4,-4.6449224E-3,-2.6527215E-3,1.3659665E-4,-3.2858418E-3,-2.9908816E-4,3.829046E-3,9.3148876E-4,8.6735125E-4,3.8164535E-3],"split_indices":[7,4,5,1,7,0,5,7,4,7,4,0,4,0,0,0,0,0,0,0,0,0,0],"split_type":[0,0,0,0,0,0,0,0,0,0,0,0,0,0,0,0,0,0,0,0,0,0,0],"sum_hessian":[1.38E2,9.7E1,4.1E1,8.2E1,1.5E1,2E0,3.9E1,9E0,7.3E1,3E0,1.2E1,4E0,3.5E1,1E0,8E0,1.9E1,5.4E1,1E0,2E0,9E0,3E0,2.5E1,1E1],"tree_param":{"num_deleted":"0","num_feature":"9","num_nodes":"23","size_leaf_vector":"1"}},{"base_weights":[-2.464097E-3,-2.318742E-2,3.2593656E-2,-3.1617556E-2,5.4159537E-2,-3.0192188E-3,3.8763084E-2,-5.2991472E-2,-4.109724E-3,-3.2036954E-3,7.441591E-2,5.0735623E-3,2.9013693E-2,-1.0583693E-3,-3.1800407E-3,-1.2152629E-3,9.18632E-3,4.479112E-3,7.1112515E-4,-3.2100557E-5,2.56392E-3],"categories":[],"categories_nodes":[],"categories_segments":[],"categories_sizes":[],"default_left":[0,0,0,0,0,0,0,0,0,0,0,0,0,0,0,0,0,0,0,0,0],"id":59,"left_children":[1,3,5,7,9,-1,11,13,15,-1,17,-1,19,-1,-1,-1,-1,-1,-1,-1,-1],"loss_changes":[1.1336531E-1,6.561285E-2,3.5610713E-2,5.210977E-2,2.8717922E-2,0E0,3.0681103E-2,1.55353695E-2,1.5620357E-1,0E0,6.942138E-3,0E0,3.2386426E-2,0E0,0E0,0E0,0E0,0E0,0E0,0E0,0E0],"parents":[2147483647,0,0,1,1,2,2,3,3,4,4,6,6,7,7,8,8,10,10,12,12],"right_children":[2,4,6,8,10,-1,12,14,16,-1,18,-1,20,-1,-1,-1,-1,-1,-1,-1,-1],"split_conditions":[7.5E1,2.2E2,2.5E-1,6.86E0,5E0,-3.0192188E-3,7.6E-1,7.6E-1,1.5E-1,-3.2036954E-3,5.86E0,5.0735623E-3,1.2E2,-1.0583693E-3,-3.1800407E-3,-1.2152629E-3,9.18632E-3,4.479112E-3,7.1112515E-4,-3.2100557E-5,2.56392E-3],"split_indices":[7,4,5,1,7,0,5,5,8,0,1,0,4,0,0,0,0,0,0,0,0],"split_type":[0,0,0,0,0,0,0,0,0,0,0,0,0,0,0,0,0,0,0,0,0],"sum_hessian":[1.54E2,9.7E1,5.7E1,8.8E1,9E0,3E0,5.4E1,4.9E1,3.9E1,1E0,8E0,6E0,4.8E1,1.3E1,3.6E1,3.6E1,3E0,6E0,2E0,2.1E1,2.7E1],"tree_param":{"num_deleted":"0","num_feature":"9","num_nodes":"21","size_leaf_vector":"1"}},{"base_weights":[-3.4414334E-3,-3.6042896E-3,1.8261315E-3,2.3139443E-3,-4.4886377E-3,-1.6653704E-2,3.3721037E-2,-2.448228E-3,6.124622E-4,1.3469121E-3,2.8746496E-3],"categories":[],"categories_nodes":[],"categories_segments":[],"categories_sizes":[],"default_left":[0,0,0,0,0,0,0,0,0,0,0],"id":60,"left_children":[1,-1,3,-1,5,7,9,-1,-1,-1,-1],"loss_changes":[5.581628E-2,0E0,4.0629804E-2,0E0,5.959412E-2,9.118604E-2,3.4496933E-3,0E0,0E0,0E0,0E0],"parents":[2147483647,0,0,2,2,4,4,5,5,6,6],"right_children":[2,-1,4,-1,6,8,10,-1,-1,-1,-1],"split_conditions":[2.5E-1,-3.6042896E-3,7.6E-1,2.3139443E-3,1.6E2,6.86E0,5E-1,-2.448228E-3,6.124622E-4,1.3469121E-3,2.8746496E-3],"split_indices":[5,0,5,0,4,1,6,0,0,0,0],"split_type":[0,0,0,0,0,0,0,0,0,0,0],"sum_hessian":[1.53E2,1E1,1.43E2,1.7E1,1.26E2,9.6E1,3E1,4.5E1,5.1E1,2.5E1,5E0],"tree_param":{"num_deleted":"0","num_feature":"9","num_nodes":"11","size_leaf_vector":"1"}},{"base_weights":[-2.8907142E-3,3.9764863E-2,-8.8726785E-3,-6.617712E-4,6.524464E-2,-3.3696316E-2,1.026326E-2,3.7072976E-3,5.429149E-4,-8.426597E-2,2.5301017E-2,-4.016635E-3,8.794741E-2,-5.5674915E-3,-6.773258E-4,7.997529E-4,3.8569004E-3,-1.9978678E-3,6.821821E-4,6.083043E-3,8.20821E-4],"categories":[],"categories_nodes":[],"categories_segments":[],"categories_sizes":[],"default_left":[0,0,0,0,0,0,0,0,0,0,0,0,0,0,0,0,0,0,0,0,0],"id":61,"left_children":[1,3,5,-1,7,9,11,-1,-1,13,15,17,19,-1,-1,-1,-1,-1,-1,-1,-1],"loss_changes":[3.9392933E-2,2.6521817E-2,6.4474024E-2,0E0,5.488325E-3,1.7815705E-1,8.577101E-2,0E0,0E0,5.9782952E-2,1.2273174E-2,4.2436883E-2,2.6941441E-2,0E0,0E0,0E0,0E0,0E0,0E0,0E0,0E0],"parents":[2147483647,0,0,1,1,2,2,4,4,5,5,6,6,9,9,10,10,11,11,12,12],"right_children":[2,4,6,-1,8,10,12,-1,-1,14,16,18,20,-1,-1,-1,-1,-1,-1,-1,-1],"split_conditions":[2E0,8E1,6E0,-6.617712E-4,2E2,1.6E2,1.2E2,3.7072976E-3,5.429149E-4,1.5E-1,6.54E1,9E1,1.5E2,-5.5674915E-3,-6.773258E-4,7.997529E-4,3.8569004E-3,-1.9978678E-3,6.821821E-4,6.083043E-3,8.20821E-4],"split_indices":[0,4,0,0,4,4,4,0,0,8,2,4,4,0,0,0,0,0,0,0,0],"split_type":[0,0,0,0,0,0,0,0,0,0,0,0,0,0,0,0,0,0,0,0,0],"sum_hessian":[1.52E2,1.8E1,1.34E2,6E0,1.2E1,5.8E1,7.6E1,1E1,2E0,3.1E1,2.7E1,6.5E1,1.1E1,2.2E1,9E0,2.4E1,3E0,2.1E1,4.4E1,7E0,4E0],"tree_param":{"num_deleted":"0","num_feature":"9","num_nodes":"21","size_leaf_vector":"1"}},{"base_weights":[-1.079157E-2,-3.12051E-2,1.0942611E-2,-4.3755148E-2,-1.0222086E-2,-7.2737294E-3,5.6847148E-2,-5.3847082E-2,3.716919E-3,-3.2911118E-2,9.869329E-3,5.651387E-3,-6.3657537E-3,2.82276E-2,4.1321972E-3,-4.7519375E-3,-1.1425413E-3,-3.1728565E-3,1.5987406E-3,-3.0583849E-3,-7.692312E-4,3.800561E-3,-3.249553E-4,-2.4976805E-4,2.0655317E-3],"categories":[],"categories_nodes":[],"categories_segments":[],"categories_sizes":[],"default_left":[0,0,0,0,0,0,0,0,0,0,0,0,0,0,0,0,0,0,0,0,0,0,0,0,0],"id":62,"left_children":[1,3,5,7,9,11,13,15,17,19,-1,21,-1,23,-1,-1,-1,-1,-1,-1,-1,-1,-1,-1,-1],"loss_changes":[6.378646E-2,1.9039728E-2,5.8948383E-2,2.223806E-2,1.4309895E-1,7.984847E-2,1.2433007E-2,4.634621E-2,1.9112803E-2,1.2430407E-2,0E0,4.0674612E-2,0E0,4.987588E-3,0E0,0E0,0E0,0E0,0E0,0E0,0E0,0E0,0E0,0E0,0E0],"parents":[2147483647,0,0,1,1,2,2,3,3,4,4,5,5,6,6,7,7,8,8,9,9,11,11,13,13],"right_children":[2,4,6,8,10,12,14,16,18,20,-1,22,-1,24,-1,-1,-1,-1,-1,-1,-1,-1,-1,-1,-1],"split_conditions":[5.2E1,1.5E-1,1.37E2,1.88E2,6.86E0,4E0,1.1E2,5E-1,6E0,9E1,9.869329E-3,1E0,-6.3657537E-3,1.88E2,4.1321972E-3,-4.7519375E-3,-1.1425413E-3,-3.1728565E-3,1.5987406E-3,-3.0583849E-3,-7.692312E-4,3.800561E-3,-3.249553E-4,-2.4976805E-4,2.0655317E-3],"split_indices":[7,8,4,4,1,5,7,6,7,4,0,0,0,4,0,0,0,0,0,0,0,0,0,0,0],"split_type":[0,0,0,0,0,0,0,0,0,0,0,0,0,0,0,0,0,0,0,0,0,0,0,0,0],"sum_hessian":[1.42E2,7.3E1,6.9E1,4.5E1,2.8E1,5E1,1.9E1,3.7E1,8E0,2.6E1,2E0,4.6E1,4E0,1E1,9E0,1.5E1,2.2E1,2E0,6E0,9E0,1.7E1,6E0,4E1,3E0,7E0],"tree_param":{"num_deleted":"0","num_feature":"9","num_nodes":"25","size_leaf_vector":"1"}},{"base_weights":[1.4621646E-3,-9.922681E-3,4.979554E-2,-6.092821E-3,-6.9677765E-3,2.2131154E-2,7.587913E-2,-3.6301266E-2,2.6686168E-3,2.639404E-3,2.546444E-3,5.2921668E-2,4.8834397E-3,-3.4041267E-3,-1.2525195E-3,2.8308805E-3,-2.8327203E-4,-1.6981667E-3,8.0177526E-4,4.935171E-3,1.2870337E-3],"categories":[],"categories_nodes":[],"categories_segments":[],"categories_sizes":[],"default_left":[0,0,0,0,0,0,0,0,0,0,0,0,0,0,0,0,0,0,0,0,0],"id":63,"left_children":[1,3,5,-1,7,9,11,13,15,17,-1,19,-1,-1,-1,-1,-1,-1,-1,-1,-1],"loss_changes":[8.083324E-2,3.8510602E-2,1.8525131E-2,0E0,3.316915E-2,8.285349E-3,1.8344969E-3,8.663952E-3,4.0336408E-2,5.447959E-3,0E0,8.658852E-3,0E0,0E0,0E0,0E0,0E0,0E0,0E0,0E0,0E0],"parents":[2147483647,0,0,1,1,2,2,4,4,5,5,6,6,7,7,8,8,9,9,11,11],"right_children":[2,4,6,-1,8,10,12,14,16,18,-1,20,-1,-1,-1,-1,-1,-1,-1,-1,-1],"split_conditions":[1.2E2,5.15E0,5.86E0,-6.092821E-3,3E1,1.37E2,1.37E2,5E0,2E0,3E0,2.546444E-3,7.6E-1,4.8834397E-3,-3.4041267E-3,-1.2525195E-3,2.8308805E-3,-2.8327203E-4,-1.6981667E-3,8.0177526E-4,4.935171E-3,1.2870337E-3],"split_indices":[7,1,1,0,7,7,7,7,0,0,0,5,0,0,0,0,0,0,0,0,0],"split_type":[0,0,0,0,0,0,0,0,0,0,0,0,0,0,0,0,0,0,0,0,0],"sum_hessian":[1.45E2,1.18E2,2.7E1,2E0,1.16E2,1.4E1,1.3E1,2.8E1,8.8E1,9E0,5E0,8E0,5E0,6E0,2.2E1,1.1E1,7.7E1,2E0,7E0,2E0,6E0],"tree_param":{"num_deleted":"0","num_feature":"9","num_nodes":"21","size_leaf_vector":"1"}},{"base_weights":[-1.1713075E-3,-1.815006E-2,1.9941252E-2,-5.8534048E-3,-8.939276E-2,6.573157E-3,8.618417E-2,-4.39992E-2,1.8554224E-2,5.817576E-4,-9.9634856E-2,3.995218E-2,-6.053085E-2,7.1269358E-3,1.5465598E-2,-3.0384427E-3,-1.381195E-3,-2.9405113E-3,1.615865E-3,-5.5566765E-3,3.837973E-4,1.5516974E-3,9.248171E-3,-8.21514E-3,-5.8667647E-4,-1.1026716E-3,5.0765187E-3],"categories":[],"categories_nodes":[],"categories_segments":[],"categories_sizes":[],"default_left":[0,0,0,0,0,0,0,0,0,0,0,0,0,0,0,0,0,0,0,0,0,0,0,0,0,0,0],"id":64,"left_children":[1,3,5,7,9,11,13,15,17,-1,19,21,23,-1,25,-1,-1,-1,-1,-1,-1,-1,-1,-1,-1,-1,-1],"loss_changes":[5.305627E-2,7.131259E-2,5.7879247E-2,6.6920795E-2,1.357612E-2,1.2785083E-1,4.1633986E-2,6.0103536E-3,4.8750594E-2,0E0,1.4426298E-2,4.3403134E-2,9.42842E-2,0E0,2.1613494E-2,0E0,0E0,0E0,0E0,0E0,0E0,0E0,0E0,0E0,0E0,0E0,0E0],"parents":[2147483647,0,0,1,1,2,2,3,3,4,4,5,5,6,6,7,7,8,8,10,10,11,11,12,12,14,14],"right_children":[2,4,6,8,10,12,14,16,18,-1,20,22,24,-1,26,-1,-1,-1,-1,-1,-1,-1,-1,-1,-1,-1,-1],"split_conditions":[1.2E2,3E0,6E0,4.5E1,6E0,5E0,1.4E2,9E1,2.5E-1,5.817576E-4,1.8E2,4E0,1.5E2,7.1269358E-3,1.5E-1,-3.0384427E-3,-1.381195E-3,-2.9405113E-3,1.615865E-3,-5.5566765E-3,3.837973E-4,1.5516974E-3,9.248171E-3,-8.21514E-3,-5.8667647E-4,-1.1026716E-3,5.0765187E-3],"split_indices":[4,5,0,7,7,0,4,4,5,0,7,0,4,0,8,0,0,0,0,0,0,0,0,0,0,0,0],"split_type":[0,0,0,0,0,0,0,0,0,0,0,0,0,0,0,0,0,0,0,0,0,0,0,0,0,0,0],"sum_hessian":[1.46E2,8.1E1,6.5E1,7E1,1.1E1,5.5E1,1E1,2.7E1,4.3E1,1E0,1E1,3.7E1,1.8E1,5E0,5E0,1.2E1,1.5E1,6E0,3.7E1,9E0,1E0,3.6E1,1E0,5E0,1.3E1,4E0,1E0],"tree_param":{"num_deleted":"0","num_feature":"9","num_nodes":"27","size_leaf_vector":"1"}},{"base_weights":[-8.664337E-4,-2.8932594E-2,1.249384E-2,-3.3660028E-2,4.9496056E-3,5.746268E-4,4.777095E-2,-6.902393E-3,-4.948453E-2,-5.055724E-2,1.4585386E-2,5.5101242E-2,1.4153103E-2,-1.3661782E-3,9.016967E-3,-4.9989014E-3,-1.4885037E-3,-5.0618495E-3,2.869987E-4,3.2847263E-3,2.3334786E-4,1.6924096E-3,4.270321E-3,3.0988056E-4,8.290723E-4],"categories":[],"categories_nodes":[],"categories_segments":[],"categories_sizes":[],"default_left":[0,0,0,0,0,0,0,0,0,0,0,0,0,0,0,0,0,0,0,0,0,0,0,0,0],"id":65,"left_children":[1,3,5,7,-1,9,11,13,15,17,19,21,23,-1,-1,-1,-1,-1,-1,-1,-1,-1,-1,-1,-1],"loss_changes":[5.6982193E-2,3.296509E-2,4.3281518E-2,1.9982897E-2,0E0,5.6616306E-2,5.6272857E-3,7.7577725E-2,2.68872E-2,4.9084272E-2,3.1122595E-2,1.063478E-2,1.3146666E-5,0E0,0E0,0E0,0E0,0E0,0E0,0E0,0E0,0E0,0E0,0E0,0E0],"parents":[2147483647,0,0,1,1,2,2,3,3,5,5,6,6,7,7,8,8,9,9,10,10,11,11,12,12],"right_children":[2,4,6,8,-1,10,12,14,16,18,20,22,24,-1,-1,-1,-1,-1,-1,-1,-1,-1,-1,-1,-1],"split_conditions":[3.8E1,9E0,1.6E2,5E0,4.9496056E-3,5.86E0,2.4E2,3E0,6E0,1.2E2,1E0,2E2,2E0,-1.3661782E-3,9.016967E-3,-4.9989014E-3,-1.4885037E-3,-5.0618495E-3,2.869987E-4,3.2847263E-3,2.3334786E-4,1.6924096E-3,4.270321E-3,3.0988056E-4,8.290723E-4],"split_indices":[7,0,4,0,0,1,4,0,0,4,0,4,0,0,0,0,0,0,0,0,0,0,0,0,0],"split_type":[0,0,0,0,0,0,0,0,0,0,0,0,0,0,0,0,0,0,0,0,0,0,0,0,0],"sum_hessian":[1.5E2,4.8E1,1.02E2,4.7E1,1E0,7.7E1,2.5E1,1.8E1,2.9E1,1.6E1,6.1E1,2E1,5E0,1.7E1,1E0,7E0,2.2E1,8E0,8E0,9E0,5.2E1,1.3E1,7E0,2E0,3E0],"tree_param":{"num_deleted":"0","num_feature":"9","num_nodes":"25","size_leaf_vector":"1"}},{"base_weights":[1.9183592E-3,-6.5817516E-3,3.6438867E-2,-6.9370285E-2,1.1808209E-3,2.3202032E-2,5.5989865E-2,-4.4222693E-3,-1.0580529E-3,-2.727763E-2,1.07707875E-2,1.5485331E-2,2.9597997E-3,4.0205545E-3,1.0602176E-2,2.607429E-4,-2.1906795E-3,-1.7063909E-4,2.6746069E-3,3.563792E-4,1.1061243E-3,9.455085E-5,6.153606E-4],"categories":[],"categories_nodes":[],"categories_segments":[],"categories_sizes":[],"default_left":[0,0,0,0,0,0,0,0,0,0,0,0,0,0,0,0,0,0,0,0,0,0,0],"id":66,